tree
version=v4
num_class=1
num_tree_per_iteration=1
label_index=0
max_feature_idx=36
objective=regression
feature_names=Column_0 Column_1 Column_2 Column_3 Column_4 Column_5 Column_6 Column_7 Column_8 Column_9 Column_10 Column_11 Column_12 Column_13 Column_14 Column_15 Column_16 Column_17 Column_18 Column_19 Column_20 Column_21 Column_22 Column_23 Column_24 Column_25 Column_26 Column_27 Column_28 Column_29 Column_30 Column_31 Column_32 Column_33 Column_34 Column_35 Column_36
feature_infos=[0:0.92484308231717904] [-3.2412673400690726:3.8527314906547212] [-2.9403886346642802:3.1931075678448608] [-3.0195121558208253:3.9262377064363267] [-2.929448690002268:3.2430929695947333] [-3.1767038131960006:3.112910201043841] [-2.8995138798684819:3.0982994340712575] [-2.7126125638104379:3.5290551875704841] [-3.6883652914284442:3.1176811292080475] [-3.8366555484593694:3.3773829190826459] [-3.9224002516183423:2.7683736056259431] [-3.2325654325124336:2.9141092157683617] [-3.3755791001776001:3.3777682412893619] [-2.7829604323432204:3.284118201287884] [-3.0825621751432375:3.4289104780082136] [-3.3295037975081292:3.1404229101022372] [-3.6352002275401021:4.4790842510257569] [-2.9337706472294771:2.9798545167371469] [-2.9952668907996163:3.0966955137720533] [-3.3359015494690962:3.9423310108066856] [-3.8563753292405969:2.9303202854925101] [0.00072258894642689999:0.79195500529338991] [0.006749992464308921:673.91483857550293] [2:20] [-3.2412673400690726:3.8527314906547212] [-2.6968866429415717:2.6323820648373908] [-2.8962553781936893:2.6016831141803949] [-2.9403886346642802:3.1931075678448608] [-3.0195121558208253:3.1099185560053608] [-2.9911359709007233:3.9262377064363267] [-2.929448690002268:2.8684030556667683] [-2.4932708203300775:3.2430929695947333] [-3.0076323396937572:2.814654444472553] [-3.1767038131960006:3.112910201043841] [0.010196305733309296:0.75345717235890397] [0:9] [0.18970256732826912:0.97588911753850083]
tree_sizes=3721 3886 3885 3824 5752 5929 5885 3866 3810 3725 3788 3730 3634 3455 3642 5907 5901 3514 5883 3604 3434 3513 3370 3406 3184 3429 3179 3611 3173 3224 6017 5893 3553 5873 3457 6125 3248 5921 6024 3468 3897 6106 3688 3697 3730 3752 3455 3978 3808 3918 5854 3869 5958 5960 3639 3788 4071 3487 3994 3761 4138 4375 4236 4971 4406 4470 5085 4920 4681 5045 5128 5264 5561 4822 5321 5636 5469 5295 5657 5644 5719 5593 5692 5627 5606 5767 5718 5544 5554 5688 5701 5629 5590 5759 5511 5689 5684 5799 5664 5652 5735 5598 5624 5632 5751 5590 5445 5598 5294 5568 5650 5496 5640 5598 5557 5558 5447 5497 5689 5535 5575 5694 5537 5632 5406 5483 5586 5521 5429 5617 5715 5623 5638 5430 5574 5519 5791 5645 5478 5546 5544 5485 5606 5666 5459 5595 5591 5688 5435 5322 5417 5376 5464 5554 5503 5574 5465 5591 5531 5562 5613 5545 5556 5360 5660 5580 5587 5690 5563 5495 5554 5452 5651 5643 5644 5551 5644 5512 5620 5416 5437 5586 5591 5535 5359 5485 5499 5407 5405 5585 5635 5342 5540 5433 5611 5498 4991 5321 5457 5089 5437 5415 5274 5460 5306 5493 5647 5277 4991 5328 5282 5591 5292 5319 5673 5323 5342 5361 5386 5391 5591 5288 5298 5377 5448 5432 5408 4994 5438 5383 5497 5443 5404 5381 5321 4046 5341 4658 5453 5412 5396 5327 5214 5277 5484 5441 5352 5330 5492 5388 5401 5305 5381 5528 5352 5336 5389 5477 5434 5327 4965 5478 5175 5464 5400 5507 5408 5308 5285 5266 5156 5260 5357 5422 4714 4780 5330 4431 5329 5424 5355 5282 5403 5274 3915 5190 4424 5112 5297 5378 5280 5435 5434 5316 5327 5335 5279 5310 5399 5330 5398 5290 5353 5328 5000 5397 5229 5255 5056 5272 5365 5391 5296 5327 4417 5325 5237 5239 5315 5228 5276 5213 5240 5272 5333 4660 4616 5292 5221 5316 4930 5298 5319 5350 5312 5324 5253 5148 5267 5322 5373 5370 5311 5305 5187 5282 5219 4940 5297 5308 5312 5191 4963 5199 5324 5269 5283 5254 5280 5275 5294 5269 5331 5292 5188 5332 5272 5220 5212 4769 5223 5272 4889 5234 5115 5311 5294 5180 5264 5291 5252 5282 4165 5227 5281 5345 5267 5250 5233 5304 5330 4577 5243 5239 5238 5310 5200 5206 5196 4818 5259 5260 5200 5312 5251 5316 5278 5281 5304 4669 5280 5189 5243 4749 5236 5219 5261 5266 4588 5206 5276 5186 5268 4566 5213 5263 5263 5205 5244 5277 5251 5164 5280 5268 5230 3840 5216 5263 5205 4641 5186 5251 5248 5254 5125 5217 5197 5279 5256 5210 5173 5230 5239 5220 5234 5303 5225 5227 5250 5209 5058 5209 5246 5282 5216 5183 5192 5238 5174 5136 5182 5215 5208 5206 5194 5223 5197 5227 5211 5214 4891 5205 5255 5233 5255 5190 5244 5223 5213 5207 5202 5115 5285 4724 5188 5142 5277 5209 5094 5259

Tree=0
num_leaves=41
num_cat=0
split_feature=0 0 0 0 0 0 0 0 0 0 0 0 0 0 0 0 0 0 0 0 0 0 0 0 0 0 0 0 0 0 0 0 0 0 0 0 0 0 0 0
split_gain=628.346 152.708 26.3989 22.8617 4.45822 3.87915 3.01882 2.95174 0.94444 0.577127 0.49348 0.436446 0.398256 0.380129 0.378153 0.352917 0.0916465 0.0748876 0.0480386 0.0433771 0.0426404 0.0426154 0.0417674 0.0379391 0.0374385 0.0369994 0.0351739 0.0344092 0.0325107 0.0322596 0.0302287 0.0261828 0.00517088 0.00426072 0.00299553 0.00296351 0.00221971 0.000814336 0.000620899 0.000240877
threshold=1.0000000180025095e-35 0.45302220850823871 0.55880288692966074 0.37329619045455859 0.63517448254253617 0.50077519537204829 0.41153947364866755 0.33617749913116518 0.70019623065170389 0.59296275025925949 0.52856031865626851 0.47587473517988482 0.35470075179051225 0.43128758877070911 0.39191018069790534 0.31861614231780483 0.73295651107464233 0.66807745007804054 0.36416025174264693 0.34554957390042335 0.38193145277302826 0.40102891586007744 0.51499453498691972 0.30970728203745129 0.44150020866230716 0.48734483971704046 0.46324425207766068 0.42061106603616316 0.61123686770559427 0.32795111822592632 0.54175550614331769 0.57432069328086277 0.36845062501511955 0.35981584646866177 0.38625959914971775 0.37751387273833142 0.35030347470039674 0.34151219930083382 0.37014973852155197 0.36757662988298806
decision_type=2 2 2 2 2 2 2 2 2 2 2 2 2 2 2 2 2 2 2 2 2 2 2 2 2 2 2 2 2 2 2 2 2 2 2 2 2 2 2 2
left_child=-1 3 5 7 9 11 14 15 17 31 22 26 19 27 20 23 -10 -6 33 37 35 -16 -7 -2 -15 -13 -3 -8 -11 -17 -12 -4 39 -14 -22 -5 -21 -9 -34 -20
right_child=1 2 4 6 8 10 13 12 16 28 30 25 18 24 21 29 -18 -19 32 36 34 -23 -24 -25 -26 -27 -28 -29 -30 -31 -32 -33 38 -35 -36 -37 -38 -39 -40 -41
leaf_value=0.35025418957052046 0.36550024412403187 0.37314511277993045 0.378556596305409 0.36901226795861225 0.38274569226285693 0.37563126852440903 0.37104944979944571 0.36720607970216623 0.38588021615295154 0.38033351573736246 0.3769866764969485 0.37431493092577395 0.36812409796330281 0.37206696093376501 0.37007038018817939 0.36642333484910339 0.3888828744160237 0.38437623428806555 0.36855684276269018 0.36765575566384062 0.36945219170172011 0.37055532158725407 0.37633026367195949 0.36596742423773831 0.37260740057376662 0.37493827778191841 0.37371552692748616 0.37153767194820209 0.38137697597448128 0.36686377266191933 0.37773914030711547 0.37940271729408087 0.36869215344922468 0.36836052896657018 0.36969882374155943 0.36922944127199536 0.36788952202633035 0.36744084698415524 0.36883108010315135 0.36868681786546709
leaf_weight=3995 1202 800 500 500 400 800 900 700 100 400 600 800 600 900 1000 1100 100 200 400 600 500 1100 700 1100 900 800 900 1000 400 1000 600 500 200 500 600 500 500 500 400 100
leaf_count=3995 1202 800 500 500 400 800 900 700 100 400 600 800 600 900 1000 1100 100 200 400 600 500 1100 700 1100 900 800 900 1000 400 1000 600 500 200 500 600 500 500 500 400 100
internal_value=0.368687 0.371586 0.377005 0.368812 0.381215 0.375179 0.37077 0.367075 0.384337 0.379823 0.376589 0.374024 0.367977 0.371812 0.369851 0.366154 0.387416 0.3833 0.368461 0.367516 0.369372 0.370327 0.375961 0.365721 0.37234 0.37463 0.37345 0.371309 0.380863 0.366631 0.377368 0.378986 0.36869 0.368227 0.369591 0.369126 0.367757 0.3673 0.368793 0.368576
internal_weight=0 25402 8600 16802 2600 6000 7900 8902 800 1800 2700 3300 4500 3700 4200 4402 200 600 2200 2300 2100 2100 1500 2302 1800 1600 1700 1900 800 2100 1200 1000 1100 1100 1100 1000 1100 1200 600 500
internal_count=29397 25402 8600 16802 2600 6000 7900 8902 800 1800 2700 3300 4500 3700 4200 4402 200 600 2200 2300 2100 2100 1500 2302 1800 1600 1700 1900 800 2100 1200 1000 1100 1100 1100 1000 1100 1200 600 500
is_linear=0
shrinkage=1


Tree=1
num_leaves=41
num_cat=0
split_feature=0 0 0 0 0 0 0 0 0 0 0 0 0 0 0 0 0 0 0 0 0 0 0 0 0 0 0 0 0 0 0 0 0 0 0 0 0 0 0 0
split_gain=567.093 137.841 23.4136 21.0833 3.80574 3.60296 2.756 2.75372 0.711795 0.578614 0.445804 0.420223 0.361042 0.348047 0.34291 0.341187 0.0791643 0.0443692 0.0429758 0.0418189 0.0401404 0.0396731 0.0385245 0.038075 0.035081 0.0341473 0.0325625 0.031332 0.0281517 0.0260818 0.0256234 0.015851 0.00471797 0.00403317 0.00396214 0.00238366 0.00211327 0.000700209 0.000354964 0.000336209
threshold=1.0000000180025095e-35 0.4542125073790188 0.56141094978572592 0.37411776843737732 0.64261493251139157 0.50394549960490764 0.33699676655561867 0.41256438528209799 0.70019623065170389 0.59710708474945295 0.47843119692535557 0.53246960632668761 0.35558162304546936 0.43240793678783662 0.3936631802200084 0.31787902365396964 0.73295651107464233 0.38381331887771825 0.36496849047911106 0.46586546308497134 0.32715680242667333 0.34629429031360542 0.51851183178956572 0.61699699630410532 0.49065466935599494 0.44395718637420462 0.40289550974926031 0.42255590607722321 0.30895663026344261 0.58090530631612269 0.66807745007804054 0.54707785835076095 0.36928410244679216 0.36063166404196084 0.37842122182852694 0.38811251406230846 0.3512762615907854 0.34230572745511184 0.37101886299967074 0.36757662988298806
decision_type=2 2 2 2 2 2 2 2 2 2 2 2 2 2 2 2 2 2 2 2 2 2 2 2 2 2 2 2 2 2 2 2 2 2 2 2 2 2 2 2
left_child=-1 3 5 6 9 10 15 14 30 29 19 22 21 27 17 28 -10 34 33 -3 -17 37 -7 -11 -12 -15 -16 -9 -2 -4 -6 -13 39 -14 -5 -19 -23 -8 -34 -20
right_child=1 2 4 7 8 11 12 13 16 23 24 31 18 25 26 20 -18 35 32 -21 -22 36 -24 -25 -26 -27 -28 -29 -30 -31 -32 -33 38 -35 -36 -37 -38 -39 -40 -41
leaf_value=-0.017511019014523854 -0.0030471062986877351 0.0043269532453403285 0.0096031947714788606 0.00034901706866474541 0.013536874505528923 0.0067692219615057107 -0.0013703096128543637 0.0023157771447696348 0.016334588246626574 0.011286514876813062 0.0054874673729731942 0.0081057983286240524 -0.00049473834748602909 0.0032925864935827165 0.001401119518389244 -0.0021905346722854678 0.01918726279423549 0.00080914785878774152 -9.8765670428637838e-05 0.00490978822193203 -0.0017327933637497476 -0.00094068839468174905 0.0074483613578988188 0.012352687552463291 0.0060977644077644787 0.003816226879412972 0.0018436049074962635 0.0027851521495368373 -0.0026218939707686865 0.010455971749178681 0.014905338320715437 0.0087986814954285151 4.4629407738489493e-05 -0.00026788699930994491 0.00058122144686422871 0.0010472229281041528 -0.00071606771144073654 -0.0011458064355902185 0.00017425826550744171 0
leaf_weight=3995 1102 900 600 500 300 800 700 1000 100 400 800 600 600 1000 1000 1100 100 500 300 900 1200 600 700 400 800 800 1000 900 1100 400 200 500 200 500 600 600 500 500 400 200
leaf_count=3995 1102 900 600 500 300 800 700 1000 100 400 800 600 600 1000 1000 1100 100 500 300 900 1200 600 700 400 800 800 1000 900 1100 400 200 500 200 500 600 600 500 500 400 200
internal_value=0 0.00275422 0.00794797 0.000141952 0.0120155 0.00625215 -0.00151202 0.00202728 0.0151631 0.0107879 0.00517583 0.00765746 -0.000635431 0.00302268 0.00114913 -0.00238708 0.0177948 0.000714253 -0.000174773 0.0046214 -0.00195397 -0.00107386 0.00708996 0.0118273 0.0057961 0.00352829 0.00162494 0.00254088 -0.00283709 0.00995032 0.0140971 0.00842606 4.21287e-05 -0.000396203 0.00048026 0.000943635 -0.000843207 -0.00128104 0.000139395 -6.45977e-05
internal_weight=0 25402 8500 16902 2500 6000 9002 7900 700 1800 3400 2600 4500 3700 4200 4502 200 2200 2200 1800 2300 2300 1500 800 1600 1800 2000 1900 2202 1000 500 1100 1100 1100 1100 1100 1100 1200 600 500
internal_count=29397 25402 8500 16902 2500 6000 9002 7900 700 1800 3400 2600 4500 3700 4200 4502 200 2200 2200 1800 2300 2300 1500 800 1600 1800 2000 1900 2202 1000 500 1100 1100 1100 1100 1100 1100 1200 600 500
is_linear=0
shrinkage=0.05


Tree=2
num_leaves=41
num_cat=0
split_feature=0 0 0 0 0 0 0 0 0 0 0 0 0 0 0 0 0 0 0 0 0 0 0 0 0 0 0 0 0 0 0 0 0 0 0 0 0 0 0 0
split_gain=511.813 124.423 21.8894 18.2375 3.63579 3.28691 2.43224 2.32434 0.763311 0.465617 0.443419 0.347791 0.322233 0.305486 0.303637 0.266906 0.0680753 0.0566182 0.0392327 0.034444 0.0342957 0.0340955 0.0340649 0.030849 0.0306176 0.0287592 0.0271962 0.0264748 0.0262199 0.0220819 0.0204752 0.0187092 0.00428856 0.00321328 0.00229024 0.00212425 0.00122514 0.00116805 0.000421119 0.000224131
threshold=1.0000000180025095e-35 0.45170095316790665 0.55880288692966074 0.37265001979571843 0.63517448254253617 0.4989215065307856 0.41038575995176713 0.3354266144346833 0.70019623065170389 0.59296275025925949 0.52649810472510927 0.47426403994497796 0.35389282905118308 0.39096654234917477 0.43010716009355493 0.31698956241622739 0.73295651107464233 0.65756218888173146 0.36324285497811765 0.39938343873009419 0.38105814987269965 0.54175550614331769 0.34482995515061693 0.51104710627665495 0.32542112318217026 0.4403280577515703 0.41968123246642497 0.46189460972838597 0.48581387571931334 0.61123686770559427 0.30739869545454579 0.57432069328086277 0.36845062501511955 0.35900242927645537 0.375839130347905 0.3854612943742764 0.34953263190637296 0.40476408016496784 0.36666119562022975 0.36928410244679216
decision_type=2 2 2 2 2 2 2 2 2 2 2 2 2 2 2 2 2 2 2 2 2 2 2 2 2 2 2 2 2 2 2 2 2 2 2 2 2 2 2 2
left_child=-1 3 5 7 9 11 13 15 17 31 23 27 22 20 26 30 -10 -6 33 -15 34 -12 -9 -7 -17 -16 -8 -3 -13 -11 -2 -4 38 -14 -5 -22 -24 -21 -20 -34
right_child=1 2 4 6 8 10 14 12 16 29 21 28 18 19 25 24 -18 -19 32 37 35 -23 36 -25 -26 -27 -28 -29 -30 -31 -32 -33 39 -35 -36 -37 -38 -39 -40 -41
leaf_value=-0.016635490421634043 -0.0029355476018284605 0.0039648813700589548 0.0089043680810136968 0.00023477225983643403 0.012486960292259722 0.0061448487021755864 0.0020857436208509893 -0.001286129813131298 0.015518674495575075 0.010510703509403927 0.0074479725527398987 0.0050155604821326607 -0.00054701528630044503 0.0011824644447273576 0.0029982213933737248 -0.0021392168065760444 0.018228857619660001 0.013879140324689516 -0.00015459499337939256 0.001493425802025839 0.00065172103953776289 0.0081714674008526306 -0.00096699239261208766 0.0067704329318127743 -0.0017196580308217347 0.0034820796804101769 0.0025257436819534733 0.0044752881713952383 0.0055661547435043668 0.011451653180137869 -0.0025437452444761221 0.0096745698732320033 0 -0.00033234176068598214 0.00043151126943256755 0.00087091899207682839 -0.00075826973484304286 0.0017477728469910928 -2.5805928957309278e-05 9.2395575053631882e-05
leaf_weight=3995 902 800 500 400 300 700 900 1200 100 400 700 800 600 900 900 1000 100 300 400 600 500 600 600 800 1200 900 1000 900 800 400 1200 500 100 500 600 600 500 600 200 400
leaf_count=3995 902 800 500 400 300 700 900 1200 100 400 700 800 600 900 900 1000 100 300 400 600 500 600 600 800 1200 900 1000 900 800 400 1200 500 100 500 600 600 500 600 200 400
internal_value=0 0.00261669 0.00746521 9.07872e-05 0.0113088 0.00582597 0.00183506 -0.00147417 0.0141302 0.0100514 0.00708977 0.00475196 -0.000678137 0.0010097 0.00277054 -0.00230564 0.0169072 0.0131936 -0.000242579 0.00143773 0.000579233 0.00778634 -0.00109256 0.00648226 -0.00191273 0.00324311 0.00232007 0.00423829 0.00529431 0.0109888 -0.00271438 0.0092954 -2.65696e-05 -0.000454021 0.000357847 0.000775897 -0.000876741 0.0016249 -0.000120009 7.5561e-05
internal_weight=0 25402 8700 16702 2600 6100 7900 8802 800 1800 2800 3300 4500 4200 3700 4302 200 600 2200 2100 2100 1300 2300 1500 2200 1800 1900 1700 1600 800 2102 1000 1100 1100 1000 1100 1100 1200 600 500
internal_count=29397 25402 8700 16702 2600 6100 7900 8802 800 1800 2800 3300 4500 4200 3700 4302 200 600 2200 2100 2100 1300 2300 1500 2200 1800 1900 1700 1600 800 2102 1000 1100 1100 1000 1100 1100 1200 600 500
is_linear=0
shrinkage=0.05


Tree=3
num_leaves=40
num_cat=0
split_feature=0 0 0 0 0 0 0 0 0 0 0 0 0 0 0 0 0 0 0 0 0 0 0 0 0 0 0 0 0 0 0 0 0 0 0 0 0 0 0
split_gain=461.922 112.313 19.0797 17.1828 3.10202 2.93428 2.24599 2.24433 0.57429 0.469134 0.361967 0.340797 0.300518 0.298529 0.275502 0.262177 0.0582351 0.0420578 0.0410799 0.0409503 0.0324339 0.0323984 0.0310248 0.0303434 0.0280142 0.0255921 0.0214128 0.0190601 0.0186537 0.018147 0.0153638 0.00691063 0.00334613 0.0031319 0.00292909 0.00285186 0.00168427 0.000576188 0.000230623
threshold=1.0000000180025095e-35 0.4542125073790188 0.56141094978572592 0.37411776843737732 0.64261493251139157 0.50394549960490764 0.3377875400216685 0.41351560837924839 0.70019623065170389 0.60200357798299031 0.47966040395979753 0.53071184344911237 0.39458040989633963 0.31962325167350114 0.35647180900295289 0.43462580038359533 0.73295651107464233 0.46726466581158271 0.58090530631612269 0.38381331887771825 0.34785905196031602 0.31052131883973733 0.42473274677998168 0.36584470645590367 0.32961944604978521 0.40385961623746996 0.54469190891522457 0.49187813526918339 0.51689692707268875 0.66807745007804054 0.44538892402108338 0.62263795830587976 0.3615480292140254 0.37842122182852694 0.38908717781125834 0.37014973852155197 0.34314743309282686 0.35295428715589905 0.36845062501511955
decision_type=2 2 2 2 2 2 2 2 2 2 2 2 2 2 2 2 2 2 2 2 2 2 2 2 2 2 2 2 2 2 2 2 2 2 2 2 2 2 2
left_child=-1 3 5 6 9 10 13 12 29 18 17 28 19 21 20 22 -10 -3 -4 33 36 -2 -9 32 -15 -14 -13 -12 -7 -6 -17 -11 -16 -5 -21 38 -8 -22 -25
right_child=1 2 4 7 8 11 14 15 16 31 27 26 25 24 23 30 -18 -19 -20 34 37 -23 -24 35 -26 -27 -28 -29 -30 -31 -32 -33 -34 -35 -36 -37 -38 -39 -40
leaf_value=-0.015803737364341427 -0.0027193025595654216 0.0039308694207946032 0.0086651360078804345 0.00031393245233148721 0.012212920484841565 0.0060675568191166729 -0.001202778455304718 0.0021541281853271785 0.014743514899369127 0.010399187777644842 0.0050170901540278973 0.0072143210518103885 0.0013056008613249049 -0.0018893174670028862 -0.00040989183972719567 0.0030475600928965441 0.017318325216596302 0.0044914762939483434 0.0095245897424290175 0.00074959841232956044 -0.00077621036880692927 -0.0022958997868319101 0.0026074045968378879 -5.0701879178781637e-05 -0.0014890149690351621 0.0017037435032560663 0.0078844716719360559 0.0055424689246218409 0.0066387929212806942 0.013466833389621567 0.0034746078440435028 0.011292278472680484 -0.0002040176865602107 0.00052508893125584831 0.00098104081803352685 0.00014200238395039826 -0.00098465785205394032 -0.00058777633373795733 1.64502509118586e-06
leaf_weight=3995 1302 1000 600 500 300 700 700 1100 100 400 800 600 1000 1200 600 900 100 900 500 600 600 1100 900 300 1000 1000 600 700 700 200 700 300 500 600 600 500 600 400 200
leaf_count=3995 1302 1000 600 500 300 700 700 1100 100 400 800 600 1000 1200 600 900 100 900 500 600 600 1100 900 300 1000 1000 600 700 700 200 700 300 500 600 600 500 600 400 200
internal_value=0 0.00248604 0.00717426 0.00012802 0.0108463 0.00564324 -0.00136511 0.00183006 0.0136898 0.00973708 0.00467148 0.00691185 0.00105702 -0.00213773 -0.000555853 0.00275197 0.0160639 0.00419927 0.00906117 0.000663302 -0.000934277 -0.00252759 0.00236072 -0.000138982 -0.00170971 0.00150725 0.00755419 0.00526595 0.0063572 0.0127271 0.00323772 0.0107906 -0.000320885 0.000433691 0.000869558 5.61233e-05 -0.00110604 -0.000705903 -1.9769e-05
internal_weight=0 25402 8500 16902 2500 6000 9002 7900 700 1800 3400 2600 4300 4602 4400 3600 200 1900 1100 2300 2300 2402 2000 2100 2200 2000 1200 1500 1400 500 1600 700 1100 1100 1200 1000 1300 1000 500
internal_count=29397 25402 8500 16902 2500 6000 9002 7900 700 1800 3400 2600 4300 4602 4400 3600 200 1900 1100 2300 2300 2402 2000 2100 2200 2000 1200 1500 1400 500 1600 700 1100 1100 1200 1000 1300 1000 500
is_linear=0
shrinkage=0.05


Tree=4
num_leaves=63
num_cat=0
split_feature=15 18 5 11 2 5 19 10 23 17 5 5 19 17 14 14 2 12 14 12 1 7 14 25 29 10 2 10 30 8 28 30 28 30 31 24 36 24 30 34 1 24 33 30 28 36 25 28 36 33 36 11 34 31 34 34 28 36 15 24 34 33
split_gain=0.571725 0.451435 0.418899 0.398633 0.75007 0.477876 0.652123 0.526579 0.66598 0.525168 0.471414 0.543706 0.438612 0.406801 0.388561 0.351388 0.321523 0.286678 0.260829 0.271658 0.239431 0.265497 0.238734 0.234778 0.210708 0.209624 0.198942 0.175728 0.166388 0.163178 0.1573 0.15484 0.151623 0.138809 0.136516 0.123653 0.115096 0.103386 0.165033 0.176453 0.0979526 0.165308 0.0831739 0.0796952 0.0769081 0.0994737 0.0765508 0.0759002 0.0730105 0.0702627 0.11238 0.0698367 0.0672904 0.0638446 0.0630571 0.0469267 0.0483272 0.0315701 0.0267824 0.03233 0.0186526 0.00998284
threshold=-2.3875470353210315 -2.1908590598885294 -0.043056798766989479 -0.6734769437285576 -1.851370995088178 2.0841314857792437 2.8925988280567059 -0.20376912357984084 14.500000000000002 -1.4446642851858085 0.051678704048069964 0.63003025710206606 -1.6594122508467324 1.2135695293459972 -0.68645450292089927 0.76745319207890683 -0.16848277088740007 1.6479957422285179 0.62178646931858306 -0.45900183098513708 -1.5243560378542564 -1.5463687392312158 -0.082260671943054656 1.0000000180025095e-35 -0.10584664510551559 0.25253935389173926 1.5248922391674917 0.19215627955377165 0.50577739764587004 1.059757871192887 0.023927156677228282 -0.41165825676291873 0.43131287896327269 -0.093511523819559558 -0.79011894369361368 0.097036757170379309 0.77011707786149597 -0.98813118573311598 1.1454524428408275 0.28039472462476339 -0.01995890093341848 0.71280768609049094 1.1333336436315495 0.40846371230389072 0.54081238182788016 0.71064167562966063 0.64178281056727704 0.50017541584207181 0.71064167562966063 0.078486681030646113 0.82343604091174549 0.68830741372358395 0.30616601353152839 0.33172940746988772 0.33025200463779725 0.36743115046026009 -0.67544317706799661 0.74063657655423087 1.1385960281848135 0.82198133218485703 0.2770308370797846 -0.080981651192215967
decision_type=2 2 2 2 2 2 2 2 2 2 2 2 2 2 2 2 2 2 2 2 2 2 2 2 2 2 2 2 2 2 2 2 2 2 2 2 2 2 2 2 2 2 2 2 2 2 2 2 2 2 2 2 2 2 2 2 2 2 2 2 2 2
left_child=2 40 44 4 22 6 7 10 9 -9 14 -12 16 -10 -5 18 28 25 19 -14 33 -22 -3 47 27 36 -20 52 34 32 -29 -19 35 -17 -6 -26 51 -24 39 -39 41 49 55 -33 45 -1 -30 -18 -27 57 -51 -7 -4 -38 -25 58 -57 -2 59 60 -42 -58
right_child=1 3 24 5 12 17 -8 8 13 -11 11 -13 15 -15 -16 20 23 31 26 -21 21 -23 37 54 29 48 -28 30 46 -31 -32 43 -34 -35 -36 -37 53 38 -40 -41 42 -43 -44 -45 -46 -47 -48 -49 -50 50 -52 -53 -54 -55 -56 56 61 -59 -60 -61 -62 -63
leaf_value=0.0015329301516490243 0.0022804195580407331 0.0013463439187717753 -0.0099320800195351194 0.00080458765564907903 0.0015761726938904191 0.00063915036882197622 -0.0074363066901474498 0.0013740992536621355 -0.0014437236187513373 0.00014842919237902216 -0.0012289755934209428 -0.00015171148488190328 0.0011338935335483402 0.0025224082025850272 -0.0002633590162257097 -0.0009422109823838472 0 -0.0012142597876077929 0.0013204668677141063 0.00033476265886566917 -0.002190741910167872 0.00016999747083803492 -0.00034367708588480455 -0.0081802791470690309 -0.0082640537880917086 -0.0061438103564396586 0.0042599485261806749 0 0.0036738721787279642 0.00061476360206747654 -0.0060145036604681706 -0.0090710579439715177 -0.00020573841854540327 -0.005924224785814316 -0.0027014151855181429 -0.0022363140008560575 0.0024043235181580836 -0.0061343558501382473 0 -0.0024943642925786616 0.0032751673546119343 0.0039500357970940047 -0.00017893562843609187 -0.0043575062723275187 0.0025109641286888882 -0.0024311817565572723 0 -0.0037478071384603887 -0.0018722370567460696 -0.0036846866169047117 0.00099225300190442108 -0.0021561756791080677 -0.005278808676494726 -0.00085106905282183141 -0.0039064342292122441 0.0013086161556374514 0.0032943094785805728 -0.00011834746896404311 0.00022991273734361756 0.00059925509737705112 0.0013739963694190753 0.0056576890102845384
leaf_weight=29 23 34 22 1151 25 28 30 958 855 10176 2412 2300 1607 69 3273 35 36 23 231 3228 130 1401 33 26 20 24 81 21 32 36 20 21 25 27 62 20 44 68 25 79 72 28 26 28 31 33 21 22 25 30 20 77 24 20 23 20 25 25 23 28 29 27
leaf_count=29 23 34 22 1151 25 28 30 958 855 10176 2412 2300 1607 69 3273 35 36 23 231 3228 130 1401 33 26 20 24 81 21 32 36 20 21 25 27 62 20 44 68 25 79 72 28 26 28 31 33 21 22 25 30 20 77 24 20 23 20 25 25 23 28 29 27
internal_value=0 2.22516e-05 -0.00224353 -9.65459e-08 0.000321037 -0.000108191 -8.0395e-05 -6.97118e-05 0.000146932 0.00025435 -0.000356192 -0.000704222 0.000415878 -0.0011419 1.33723e-05 0.000492295 -0.00164847 -0.00212448 0.000693316 0.00060142 -0.000154071 -2.73216e-05 -0.00242967 -0.00371124 -0.00360385 -0.00118944 0.00210074 -0.00544037 -3.47152e-05 -0.00196863 -0.00285007 -0.00488065 -0.00347498 -0.00319836 -0.00141442 -0.00538796 -0.000321448 -0.00308067 -0.00357623 -0.00421519 0.0017433 0.00055304 0.00232274 -0.00649379 0.000453568 -0.000497002 0.00213432 -0.00144114 -0.00407452 -0.000369598 -0.00171586 -0.00136328 -0.00762946 0.00130927 -0.00628806 0.00263537 0.00377689 0.000929463 0.00205965 0.00234672 0.00278064 0.00462592
internal_weight=0 29116 281 28740 7226 21514 21224 21194 12058 11134 9136 4712 6987 924 4424 6740 247 290 5147 4835 1593 1531 239 107 188 218 312 87 140 101 41 72 65 62 87 40 169 205 172 147 376 126 250 49 93 62 53 58 49 98 50 105 46 64 49 224 72 48 152 129 101 52
internal_count=29397 29116 281 28740 7226 21514 21224 21194 12058 11134 9136 4712 6987 924 4424 6740 247 290 5147 4835 1593 1531 239 107 188 218 312 87 140 101 41 72 65 62 87 40 169 205 172 147 376 126 250 49 93 62 53 58 49 98 50 105 46 64 49 224 72 48 152 129 101 52
is_linear=0
shrinkage=0.05


Tree=5
num_leaves=64
num_cat=0
split_feature=22 15 15 22 11 3 10 5 14 12 5 5 10 9 5 23 20 22 5 4 4 17 3 3 7 2 3 3 29 32 30 32 4 21 25 25 25 10 3 32 33 32 29 31 25 17 31 30 28 11 28 26 29 21 26 28 5 31 32 25 32 15 25
split_gain=0.870386 0.534114 0.493164 0.429023 0.556255 0.446755 0.42815 0.592675 0.556633 0.677493 0.538217 0.396157 0.450118 0.409237 0.379502 0.378095 0.375042 0.370548 0.341895 0.332676 0.477798 0.450164 0.273206 0.256559 0.251397 0.22376 0.231099 0.19018 0.189689 0.197142 0.188584 0.196234 0.185327 0.227117 0.184163 0.185527 0.176351 0.260754 0.171912 0.245312 0.172167 0.167106 0.164454 0.163263 0.152477 0.148284 0.144438 0.141928 0.138371 0.137276 0.136615 0.128354 0.150481 0.1248 0.101796 0.0969382 0.0973694 0.0810457 0.0795602 0.078769 0.0614192 0.050033 0.110284
threshold=399.08290869685317 -2.3875470353210315 -1.6101801782597025 129.90711509028958 -1.3868762376823898 1.9817508481074635 -0.20376912357984084 0.0036887929502391055 1.4773296165115568 0.44527458367424205 2.3463649197566916 0.24781590245724294 -1.0321044653480274 -0.30147187626310451 -0.043056798766989479 15.500000000000002 -1.0991966871597503 169.11611514758167 -0.89205108506530106 1.9219066484846075 2.2770432784928629 -2.4748124260954962 1.4545414927339007 1.1861163604193428 -0.24518181667549124 -0.55982990579306768 0.19211275131628439 1.220521109700442 -0.10584664510551559 -0.040647964236172403 0.14228531805861014 -0.83033720126739274 0.57696425309456678 0.13987952297879105 -0.4448978907384416 -0.085943436339897747 -0.63217709254714249 0.70160646717642183 1.5755688913885206 -0.7256222355195433 -0.24818413600319328 -0.57852244323422841 -0.61041322887372529 1.328385585541741 1.4453712442134965 1.5294131386359684 -0.3680443496930243 -0.39280220915785452 -0.65921881427435169 0.60691757484613629 0.43131287896327269 0.19950491508880766 -0.17616905430749877 0.075070224022866852 0.6477381867733002 0.69319876747280251 0.098850123751260191 -0.062540868002050082 0.5526374774482905 0.27101783148760622 0.79998611925694307 -0.61428384836188943 0.4036944350332714
decision_type=2 2 2 2 2 2 2 2 2 2 2 2 2 2 2 2 2 2 2 2 2 2 2 2 2 2 2 2 2 2 2 2 2 2 2 2 2 2 2 2 2 2 2 2 2 2 2 2 2 2 2 2 2 2 2 2 2 2 2 2 2 2 2
left_child=1 14 22 6 17 19 7 16 10 42 15 13 -13 -9 54 -8 53 34 -18 21 -21 -6 23 32 -11 41 -27 30 29 -16 46 -32 33 -3 57 -36 37 -34 40 -40 -24 -2 -10 48 -38 50 -28 -43 -7 -35 -30 52 -33 -4 -1 56 -48 -5 -42 -41 -31 62 -19
right_child=25 2 3 4 5 43 8 11 9 24 -12 12 -14 -15 28 -17 18 61 -20 20 -22 -23 38 -25 -26 26 27 -29 45 60 31 51 36 49 35 -37 44 -39 39 59 58 47 -44 -45 -46 -47 55 -49 -50 -51 -52 -53 -54 -55 -56 -57 -58 -59 -60 -61 -62 -63 -64
leaf_value=0.0014783512140390371 -0.00066631684524624823 -0.0034537625409519442 -0.00063804614901907765 -0.00038610494296150328 0.002556825368526324 4.0712970215999371e-05 0.00051655050583618094 -0.00025303840883071312 -0.001018526777625084 -0.0013835474028520949 -0.0052731444020940061 -0.001343145011208491 6.2831687810386689e-07 -0.0026793707074060512 -0.0023321869155770772 -0.00087606394173301389 -0.00048524863998608846 0.0028563763531266901 0.00050724210639381041 0.0019561867293011229 -0.0037823747218656751 -0.00047796690318004906 -0.0053240630996190122 0.0036519082185867604 -0.0039816883593163334 0.00039763674101762149 -0.0016001697008546961 0.0012158272231378255 -0.005126110644633081 -0.0091042341989236372 0.0030595692866180664 -0.0011994965008526775 -0.0025268739323567328 0.0013381580816131263 -0.005720043810022668 -0.00047211702203992325 0.0025816093130892536 0.0031582920520152793 -0.0038794325829126786 0.0043518742271202943 -0.0023292090509816166 -0.0021954246564637038 0.00085071245530651319 -0.0066245116418413011 -0.00069464352279976821 0.00058411056745972828 -0.0036809103912122153 -0.0068511092744651687 -0.0027816835621161193 -0.00030659115388237114 -0.00019549258003211708 4.9603042029535554e-06 -0.0072378204420144926 0.0018194300847937273 -0.0022132221492474889 -0.0022707962461130981 -0.0086293902110274653 0.003255965913172133 0.0013656279192755067 0.00048018687194293719 -0.0046549491558817045 0.0032055241150709341 -0.00087107063678766063
leaf_weight=68 29 35 55 21 124 54 10281 309 164 265 41 839 2393 412 39 509 1489 56 2074 284 41 6404 32 106 152 105 37 30 40 28 20 25 51 318 21 98 341 33 20 29 32 29 405 23 37 36 21 54 167 204 25 29 21 454 25 20 33 40 25 30 20 167 28
leaf_count=68 29 35 55 21 124 54 10281 309 164 265 41 839 2393 412 39 509 1489 56 2074 284 41 6404 32 106 152 105 37 30 40 28 20 25 51 318 21 98 341 33 20 29 32 29 405 23 37 36 21 54 167 204 25 29 21 454 25 20 33 40 25 30 20 167 28
internal_value=0 3.45483e-05 5.59885e-05 1.0724e-05 -0.00031046 -0.00041693 0.000132833 -0.000148581 0.000324366 -0.000811185 0.000428209 -0.000585088 -0.000346688 -0.00164663 -0.00213389 0.000450385 0.000273946 0.0014308 9.10688e-05 -0.00034121 0.00121592 -0.000419517 0.0010102 0.00129283 -0.00234331 -0.00217397 -0.00151306 -0.00238414 -0.00342881 -0.00517316 -0.00293301 -0.0012217 0.00104219 0.000416201 -0.000275348 -0.00144423 0.00178583 -0.000232863 -0.000852327 0.000797934 -0.00237253 -0.00413846 0.000303081 -0.00252209 0.00224759 -0.00187317 -0.00435022 -0.00528919 -0.00206973 0.00068587 -0.00330974 -0.0024325 -0.0040743 0.00154399 0.000430976 -0.00565375 -0.00680776 0.00192173 -0.000621547 0.00247197 -0.00736785 0.00267387 0.00155488
internal_weight=0 28944 28663 27370 7528 7097 19842 8025 11817 986 10831 3953 3232 721 281 10790 4072 431 3563 6853 325 6528 1293 1125 417 453 341 236 188 87 206 95 1019 557 180 119 462 84 168 79 89 112 569 244 378 101 111 83 221 522 65 75 46 509 93 74 54 61 57 59 48 251 84
internal_count=29397 28944 28663 27370 7528 7097 19842 8025 11817 986 10831 3953 3232 721 281 10790 4072 431 3563 6853 325 6528 1293 1125 417 453 341 236 188 87 206 95 1019 557 180 119 462 84 168 79 89 112 569 244 378 101 111 83 221 522 65 75 46 509 93 74 54 61 57 59 48 251 84
is_linear=0
shrinkage=0.05


Tree=6
num_leaves=64
num_cat=0
split_feature=22 15 15 22 11 3 10 10 23 14 14 15 22 19 10 23 22 1 18 8 7 29 30 14 3 36 3 18 2 19 6 29 2 25 25 10 35 29 3 33 30 31 30 25 25 16 29 28 23 8 28 28 36 34 34 26 36 26 27 31 34 34 28
split_gain=0.787338 0.483425 0.444955 0.387119 0.501434 0.403206 0.386334 0.570847 0.653697 0.502621 0.558577 0.395791 0.37169 0.356713 0.343253 0.341857 0.335061 0.324008 0.309202 0.508842 0.41455 0.294668 0.270017 0.264324 0.246394 0.232379 0.231427 0.214174 0.202174 0.297221 0.182098 0.171285 0.171185 0.166116 0.167254 0.159061 0.156735 0.15572 0.155355 0.155316 0.151984 0.14705 0.142923 0.158535 0.249411 0.29444 0.151386 0.142285 0.137375 0.13449 0.125281 0.122699 0.116536 0.104892 0.098822 0.0977049 0.0993643 0.0919807 0.0832168 0.0735284 0.0619846 0.0617957 0.0607861
threshold=399.08290869685317 -2.3875470353210315 -1.6101801782597025 129.90711509028958 -1.3868762376823898 1.9817508481074635 -0.20376912357984084 -0.3243982677192912 6.5000000000000009 1.4773296165115568 1.5152680252684509 1.1727959279082731 8.4128532476733131 2.8925988280567059 -0.6110430932831733 15.500000000000002 169.11611514758167 1.83904788095101 0.30072552720959095 0.76200022014596636 -0.80231472395000791 1.9748241511151183 0.96343111452601093 -0.1649378715891609 1.4545414927339007 0.90082178548802661 1.1861163604193428 1.084055643131802 -0.55982990579306768 -0.14198347901949315 1.7078104512440826 -0.10584664510551559 -1.0193071920884009 -0.4448978907384416 -0.085943436339897747 0.19215627955377165 3.5000000000000004 -0.74453128953931136 1.5755688913885206 -0.24818413600319328 -0.48060353322527111 1.328385585541741 0.18732767902549738 0.66668188241971726 -0.87929903594965986 -0.18423591650272228 0.32869412986618335 0.023927156677228282 5.5000000000000009 1.059757871192887 -0.65921881427435169 0.43131287896327269 0.60123531675623587 0.46647046852921498 0.22748832774581831 0.19950491508880766 0.75066666250546432 0.6477381867733002 -0.081161038544207184 -0.062540868002050082 0.30616601353152839 0.33517275766349502 0.88892691849931149
decision_type=2 2 2 2 2 2 2 2 2 2 2 2 2 2 2 2 2 2 2 2 2 2 2 2 2 2 2 2 2 2 2 2 2 2 2 2 2 2 2 2 2 2 2 2 2 2 2 2 2 2 2 2 2 2 2 2 2 2 2 2 2 2 2
left_child=1 14 24 6 16 18 7 8 21 13 25 23 -10 15 57 -8 33 -15 19 -6 -20 -4 -13 -9 26 -11 30 -12 36 62 32 35 53 59 -35 60 -2 -38 39 -26 -32 50 43 44 -31 46 -46 -37 -34 51 -7 -33 -40 -3 -39 56 -44 -1 -41 -5 -16 -54 -30
right_child=28 2 3 4 5 41 9 11 12 10 27 22 -14 17 31 -17 -18 -19 20 -21 -22 -23 -24 -25 38 -27 -28 -29 29 42 40 49 48 34 -36 47 37 54 52 58 -42 -43 55 -45 45 -47 -48 -49 -50 -51 -52 -53 61 -55 -56 -57 -58 -59 -60 -61 -62 -63 -64
leaf_value=0.0014045421778745458 -0.0011503210065157941 -0.0014581142788089826 -0.0011012071717481585 -0.00036689115575651559 -0.00091291604947323849 3.868105334239235e-05 0.00049182018082765506 -0.0017718711013855423 -0.0008425540375368055 -0.0025879932973375971 0.00017634681680144904 -0.0027319244037663669 0.00034994784661830343 3.5238661466411928e-05 -0.0092029941635948034 -0.00083226931308347869 0.0025402796521399301 -0.0070914687254648671 -0.0011033256941792736 0.00040288872754444706 0.00039527585991629659 -0.0068741043904610782 -0.0091359835115738617 -3.5261343939324483e-05 -0.0050586892008753145 -0.008332585305928902 0.0034694848868413938 -0.0019296731541447983 6.8138185150527035e-05 -0.0001714296341698438 -0.0051879672328964685 -0.0048704441188558226 -0.00032172542950520042 -0.0054353970342831048 -0.00044853527461549805 0.00019683271792156717 -0.0017978208024514862 -0.0039085534903313523 -0.0023192854289194984 0.0018791874840540523 2.101424700804864e-06 -0.0062947200282650207 -0.0041950740359688755 -0.00017248152537067171 0 -0.0093819274219480008 -0.005917365198337533 -0.0054755465703812513 0.0016459304450021268 0.00055498585706045258 -0.002642682653274503 -0.00018575683774600969 0.0037235399490034176 0.0019549154835117855 -0.0090694361607448013 0.00068734640123538403 0 -0.0021030021055445697 -0.0020550488309829299 0.0030935735727339272 -0.0047444749762655791 0.00025705763202372463 0.0031822250222333179
leaf_weight=68 38 90 847 21 3110 54 10261 406 742 159 659 128 5370 31 22 509 251 30 583 956 2204 23 20 489 32 21 106 147 88 27 20 40 96 21 98 21 25 21 21 20 41 23 32 30 20 35 20 20 743 36 167 25 27 29 28 45 24 25 37 40 24 31 20
leaf_count=68 38 90 847 21 3110 54 10261 406 742 159 659 128 5370 31 22 509 251 30 583 956 2204 23 20 489 32 21 106 147 88 27 20 40 96 21 98 21 25 21 21 20 41 23 32 30 20 35 20 20 743 36 167 25 27 29 28 45 24 25 37 40 24 31 20
internal_value=0 3.27095e-05 5.31153e-05 1.01108e-05 -0.000294975 -0.00039609 0.000126112 -0.000141185 2.1107e-05 0.000308059 -0.000770908 -0.00123228 0.000204348 0.00040675 -0.00203024 0.000428771 0.00135812 -0.00339374 -0.000324113 -0.000602311 7.99678e-05 -0.00126034 -0.00363668 -0.000828738 0.00095949 -0.00329021 0.00122798 -0.000201743 -0.00206781 -0.00143843 0.000989592 -0.00326191 0.00116135 -0.000263061 -0.00137438 -0.00492116 -0.00393643 -0.00529618 -0.000808382 -0.00225426 -0.00162343 -0.00239618 -0.00244794 -0.00354552 -0.00448748 -0.00597238 -0.00284837 -0.00245512 0.00141482 -0.00177975 -0.00196517 -0.0031485 0.000758097 -0.000583443 -0.00697193 -0.000961941 -0.00237525 0.000406702 -0.000586176 0.00182178 -0.00700061 0.00196045 0.000693485
internal_weight=0 28944 28663 27370 7528 7097 19842 8025 6982 11817 986 1043 6112 10831 281 10770 431 61 6853 4066 2787 870 148 895 1293 180 1125 806 453 341 1019 188 958 180 119 87 112 74 168 89 61 244 233 132 102 75 40 41 839 101 221 65 79 119 49 101 56 93 57 61 46 58 108
internal_count=29397 28944 28663 27370 7528 7097 19842 8025 6982 11817 986 1043 6112 10831 281 10770 431 61 6853 4066 2787 870 148 895 1293 180 1125 806 453 341 1019 188 958 180 119 87 112 74 168 89 61 244 233 132 102 75 40 41 839 101 221 65 79 119 49 101 56 93 57 61 46 58 108
is_linear=0
shrinkage=0.05


Tree=7
num_leaves=41
num_cat=0
split_feature=0 0 0 0 0 0 0 0 0 0 0 0 0 0 0 0 0 0 0 0 0 0 0 0 0 0 0 0 0 0 0 0 0 0 0 0 0 0 0 5
split_gain=412.91 100.734 17.4236 15.0858 2.95998 2.562 2.05201 1.88024 0.616613 0.37166 0.317745 0.284674 0.266434 0.255121 0.24426 0.213763 0.0486179 0.0435985 0.0343283 0.0340438 0.0325972 0.0320314 0.0281809 0.026688 0.024547 0.0237445 0.0167819 0.0147271 0.0144586 0.0132945 0.0130409 0.00948869 0.00378251 0.00255893 0.00157043 0.00143699 0.00118643 0.000912876 0.000172002 8.00332e-06
threshold=1.0000000180025095e-35 0.45302220850823871 0.55880288692966074 0.37265001979571843 0.63517448254253617 0.50077519537204829 0.41038575995176713 0.3354266144346833 0.70019623065170389 0.59296275025925949 0.52649810472510927 0.47291693580450733 0.42903068585861781 0.35389282905118308 0.39000983829175856 0.31618597302240831 0.73295651107464233 0.66807745007804054 0.4403280577515703 0.48581387571931334 0.39830120834621247 0.36416025174264693 0.3262736709906956 0.34404406365677898 0.53937121133155463 0.38015785932464635 0.4186202386629308 0.61123686770559427 0.5131340563182607 0.57101838222906609 0.30663918621808722 0.46038663266925556 0.35900242927645537 0.36845062501511955 0.38466810818539154 0.34867422512739621 0.40476408016496784 0.37496404913499276 0.37014973852155197 1.5189394319727298
decision_type=2 2 2 2 2 2 2 2 2 2 2 2 2 2 2 2 2 2 2 2 2 2 2 2 2 2 2 2 2 2 2 2 2 2 2 2 2 2 2 2
left_child=-1 3 5 7 9 11 14 15 17 29 28 31 26 23 25 30 -10 -6 -14 -13 -16 32 -17 -9 -12 37 -8 -11 -7 -4 -2 -3 -15 39 -27 -25 -22 -5 -35 -23
right_child=1 2 4 6 8 10 12 13 16 27 24 19 18 21 20 22 -18 -19 -20 -21 36 33 -24 35 -26 34 -28 -29 -30 -31 -32 -33 -34 38 -36 -37 -38 -39 -40 -41
leaf_value=-0.014942083342189156 -0.0026678864360543029 0.0035471801685007624 0.0079209265296115352 0.00018669508051465694 0.011414405837621549 0.0055984461588265986 0.0018485021914454746 -0.0011719382984983866 0.013974253766305678 0.0094444625159705534 0.0066445062769748559 0.004486937530784922 0.0026717589070571444 -0.00050276666374283443 0.0010192700767153542 -0.0019273627150371399 0.016409236484474236 0.012760693521454359 0.0031529972880837346 0.0050346305522868638 0.001328901233014005 -9.8982467830597594e-05 -0.0015354328996906275 -0.00090102887996071053 0.007293801792067062 0.00054918438039006437 0.0022248857704824407 0.010296739063555526 0.0061282058844922566 0.0086389559924036369 -0.0023210899199262659 0.0039660398916540754 -0.00029095275632918291 0 0.00074591602750806647 -0.00070355069815405697 0.0015620034427652554 0.00034896344876470035 8.7935799927377678e-05 0
leaf_weight=3995 802 600 400 300 400 700 800 1100 100 400 600 900 1000 600 900 1200 100 200 1000 900 700 478 1100 600 700 500 1000 400 700 600 1200 900 600 200 600 600 600 600 300 22
leaf_count=3995 802 600 400 300 400 700 800 1100 100 400 600 900 1000 600 900 1200 100 200 1000 900 700 478 1100 600 700 500 1000 400 700 600 1200 900 600 200 600 600 600 600 300 22
internal_value=0 0.00235019 0.0067512 9.72311e-05 0.0101721 0.00526782 0.00166902 -0.00133078 0.0127193 0.00903664 0.00641405 0.00432831 0.00251163 -0.000614657 0.000905426 -0.00207866 0.0152243 0.0118736 0.00291502 0.00476383 0.00127047 -0.000226744 -0.00174217 -0.000983504 0.00699851 0.000501331 0.00206049 0.00987808 0.00586732 0.00835756 -0.00246264 0.00380208 -0.000401059 -1.25467e-05 0.000661096 -0.000806523 0.00144044 0.000300456 6.1485e-05 -9.65739e-05
internal_weight=0 25402 8600 16802 2600 6000 8000 8802 800 1800 2700 3300 3800 4500 4200 4302 200 600 2000 1800 2200 2200 2300 2300 1300 2000 1800 800 1400 1000 2002 1500 1200 1000 1100 1200 1300 900 500 500
internal_count=29397 25402 8600 16802 2600 6000 8000 8802 800 1800 2700 3300 3800 4500 4200 4302 200 600 2000 1800 2200 2200 2300 2300 1300 2000 1800 800 1400 1000 2002 1500 1200 1000 1100 1200 1300 900 500 500
is_linear=0
shrinkage=0.05


Tree=8
num_leaves=40
num_cat=0
split_feature=0 0 0 0 0 0 0 0 0 0 0 0 0 0 0 0 0 0 0 0 0 0 0 0 0 0 0 0 0 0 0 0 0 0 0 0 0 0 0
split_gain=372.661 90.9305 16.0124 13.3313 2.82194 2.2481 1.76982 1.69762 0.554603 0.385651 0.303259 0.244633 0.225963 0.220833 0.219097 0.179563 0.0409922 0.0391425 0.0333785 0.0292434 0.0287714 0.0257236 0.0245614 0.0244924 0.0234558 0.0200687 0.0149603 0.0139176 0.0122962 0.00990687 0.00824007 0.0070489 0.00416168 0.00220013 0.00201914 0.00127922 0.00114384 0.000565533 0.000145018
threshold=1.0000000180025095e-35 0.45170095316790665 0.55548879234996118 0.37265001979571843 0.63517448254253617 0.4973268062561384 0.41038575995176713 0.33455040137396203 0.70019623065170389 0.58894166583851326 0.52284983866645607 0.35295428715589905 0.47291693580450733 0.39191018069790534 0.42903068585861781 0.31546624905128368 0.73295651107464233 0.65756218888173146 0.36244734366414749 0.60672020009940908 0.38193145277302826 0.53685537473539224 0.3246393724557905 0.43811586074648406 0.34314743309282686 0.40015686091574237 0.41761337385328412 0.48280885673878937 0.46038663266925556 0.50965770453497317 0.30663918621808722 0.57101838222906609 0.36845062501511955 0.37666414790490244 0.35802461382410616 0.38625959914971775 0.34785905196031602 0.36584470645590367 0.37014973852155197
decision_type=2 2 2 2 2 2 2 2 2 2 2 2 2 2 2 2 2 2 2 2 2 2 2 2 2 2 2 2 2 2 2 2 2 2 2 2 2 2 2
left_child=-1 3 5 7 9 12 13 15 17 31 29 24 28 20 26 30 -10 -6 34 -11 33 -12 -17 -16 -9 -15 -8 -14 -3 -7 -2 -4 37 -5 -13 -22 -26 -20 -34
right_child=1 2 4 6 8 10 14 11 16 19 21 18 27 25 23 22 -18 -19 32 -21 35 -23 -24 -25 36 -27 -28 -29 -30 -31 -32 -33 38 -35 -36 -37 -38 -39 -40
leaf_value=-0.014194997974126704 -0.002534508765841739 0.0033525061384833141 0.0074833108598269171 0.00021949211663827573 0.010660297107553529 0.0051858365657056786 0.0017310030555381568 -0.0011423712139117651 0.013276239178635619 0.0088023179927428832 0.0062020405326685115 -0.00051078629714571737 0.0042012243636070602 0.001044170670012655 0.0024870710669290482 -0.0018771250282793783 0.015589594108598693 0.011880267679850209 -0.00017170399350148035 0.009688958969027538 0.00058578381353888316 0.0068200149080520399 -0.0015072087708942277 0.0029264186592511017 -0.00088819650801192295 0.0014001636209270976 0.0020971141201579003 0.0046557818888233928 0.0037677599344170375 0.0056698734952524525 -0.0022240228637234807 0.0081212630556884054 0 0.00039810752552629905 -0.00032559395502283338 0.00077897424325738037 -0.00069782605758196407 -4.7703315464836417e-05 8.3540474870972639e-05
leaf_weight=3995 802 700 500 500 300 700 700 1100 100 400 700 600 700 900 800 1100 100 300 400 500 500 700 1200 1100 600 1100 1100 900 900 700 1100 500 200 600 500 600 600 300 300
leaf_count=3995 802 700 500 500 300 700 700 1100 100 400 700 600 700 900 800 1100 100 300 400 500 500 700 1200 1100 600 1100 1100 900 900 700 1100 500 200 600 500 600 600 300 300
internal_value=0 0.00223288 0.00637777 7.34996e-05 0.00957742 0.00493695 0.00156485 -0.00126445 0.0120846 0.00851855 0.00597544 -0.000599211 0.00402656 0.000860518 0.00236295 -0.00199148 0.0144651 0.0112805 -0.000231702 0.00930147 0.000510925 0.00651506 -0.00168637 0.0027442 -0.000964521 0.00124253 0.00195762 0.00446031 0.00358943 0.00543181 -0.0023577 0.00780807 -4.46504e-05 0.000321491 -0.00043119 0.000695767 -0.000797244 -0.000125717 5.88474e-05
internal_weight=0 25402 8700 16702 2700 6000 7900 8802 800 1900 2800 4600 3200 4200 3700 4202 200 600 2300 900 2200 1400 2300 1900 2300 2000 1800 1600 1600 1400 1902 1000 1200 1100 1100 1100 1200 700 500
internal_count=29397 25402 8700 16702 2700 6000 7900 8802 800 1900 2800 4600 3200 4200 3700 4202 200 600 2300 900 2200 1400 2300 1900 2300 2000 1800 1600 1600 1400 1902 1000 1200 1100 1100 1100 1200 700 500
is_linear=0
shrinkage=0.05


Tree=9
num_leaves=39
num_cat=0
split_feature=0 0 0 0 0 0 0 0 0 0 0 0 0 0 0 0 0 0 0 0 0 0 0 0 0 0 0 0 0 0 0 0 0 0 0 0 0 22
split_gain=336.335 82.0839 13.7179 12.8268 2.20324 2.15799 1.70182 1.65385 0.373929 0.334054 0.264359 0.255217 0.232412 0.219485 0.197643 0.192184 0.0570527 0.0300322 0.0289304 0.0281146 0.0226198 0.0222483 0.0220326 0.021892 0.0195121 0.0192168 0.017093 0.0129398 0.0123942 0.0100508 0.0054326 0.00277072 0.00199451 0.00155247 0.00120331 0.000597848 0.000271228 0.000184222
threshold=1.0000000180025095e-35 0.45541762242256917 0.56490017802087233 0.37496404913499276 0.50603515278002187 0.64900557463375663 0.33863232315152297 0.41451954270408137 0.60200357798299031 0.73295651107464233 0.48126205688520324 0.53471393785757126 0.32029570872268437 0.39544847975634573 0.35719042004440221 0.43581241691643119 0.68291581541597646 0.46845601376267815 0.38466810818539154 0.31134151520835401 0.36584470645590367 0.34785905196031602 0.62263795830587976 0.42568080737275477 0.52079625088495041 0.33049010788181149 0.40476408016496784 0.49375267635321179 0.58506864938767478 0.44655667654659775 0.54964687194610085 0.37101886299967074 0.38015785932464635 0.36244734366414749 0.38908717781125834 0.35295428715589905 0.36845062501511955 303.30787809826842
decision_type=2 2 2 2 2 2 2 2 2 2 2 2 2 2 2 2 2 2 2 2 2 2 2 2 2 2 2 2 2 2 2 2 2 2 2 2 2 2
left_child=-1 3 4 6 10 8 12 13 28 16 17 24 19 18 21 23 -7 -3 32 -2 33 -8 -10 -9 -6 -14 -15 -12 -4 -17 -13 36 -5 -16 -20 -23 -22 -35
right_child=1 2 5 7 11 9 14 15 22 -11 27 30 25 26 20 29 -18 -19 34 -21 31 35 -24 -25 -26 -27 -28 -29 -30 -31 -32 -33 -34 37 -36 -37 -38 -39
leaf_value=-0.013485265876021316 -0.0023192629020292606 0.0034030876237235658 0.0075243126010620639 0.00031459255127675524 0.0052843567600862314 0.010790240352489837 -0.00092473282311126876 0.0018742658743246578 0.0088766627555577592 0.014810893067589532 0.0043331826545010364 0.0063323574283136522 -0.0015872823402646279 0.0011489282716030259 -0.00032810828274692388 0.0026412021002048601 0.012288739021750227 0.0038909607038684932 0.00065486893339771271 -0.0019324140409027143 -4.5318944472544873e-05 -0.00066294056863557081 0.0097625747174061844 0.0022652193436244103 0.0058201979759028603 -0.001248545577208938 0.0014838228391630746 0.0047958586283571945 0.008216811824190531 0.0030113748630857043 0.0068865852844259834 0.00014619179615209675 0.00049620009178917362 -0.00017116443945609276 0.00084690019284005061 -0.00049788277400801399 1.6662306823863091e-05 0
leaf_weight=3995 1402 1000 600 600 800 300 1200 1100 400 100 800 600 1200 1000 600 900 200 900 500 1100 300 600 400 900 700 1000 1000 700 400 700 500 500 500 379 700 500 300 21
leaf_count=3995 1402 1000 600 600 800 300 1200 1100 400 100 800 600 1200 1000 600 900 200 900 500 1100 300 600 400 900 700 1000 1000 700 400 700 500 500 500 379 700 500 300 21
internal_value=0 0.00212142 0.00616506 0.000123295 0.00488525 0.00936217 -0.00115583 0.00159767 0.00848589 0.0119808 0.0040426 0.00598506 -0.00181754 0.000933784 -0.000447546 0.00238922 0.011402 0.00363701 0.000596649 -0.00215127 -9.41154e-05 -0.000768051 0.00932703 0.0020528 0.00553812 -0.00143565 0.00131894 0.00455274 0.00780711 0.00280646 0.00658943 5.86407e-05 0.000401724 -0.000267136 0.000771115 -0.000592511 -5.99876e-06 -0.000163121
internal_weight=0 25402 8400 17002 6000 2400 9102 7900 1800 600 3400 2600 4702 4300 4400 3600 500 1900 2300 2502 2100 2300 800 2000 1500 2200 2000 1500 1000 1600 1100 1100 1100 1000 1200 1100 600 400
internal_count=29397 25402 8400 17002 6000 2400 9102 7900 1800 600 3400 2600 4702 4300 4400 3600 500 1900 2300 2502 2100 2300 800 2000 1500 2200 2000 1500 1000 1600 1100 1100 1100 1000 1200 1100 600 400
is_linear=0
shrinkage=0.05


Tree=10
num_leaves=40
num_cat=0
split_feature=0 0 0 0 0 0 0 0 0 0 0 0 0 0 0 0 0 0 0 0 0 0 0 0 0 0 0 0 0 0 0 0 0 0 0 0 0 0 5
split_gain=303.551 74.093 13.0492 10.8667 2.30117 1.82994 1.44231 1.38397 0.520986 0.245115 0.241401 0.192529 0.183374 0.175414 0.170443 0.165669 0.0971067 0.023386 0.0210655 0.0206755 0.0203897 0.0194431 0.0172225 0.0145478 0.0128313 0.0119883 0.0115434 0.011247 0.00506271 0.00348225 0.00190813 0.00187953 0.00157842 0.0014696 0.000887642 0.000776949 0.000540679 0.000100989 6.4407e-06
threshold=1.0000000180025095e-35 0.45170095316790665 0.55548879234996118 0.37265001979571843 0.62858345603585553 0.4973268062561384 0.40934971627735306 0.33617749913116518 0.68291581541597646 0.52469113369017928 0.58894166583851326 0.42790622530368855 0.47155743470389594 0.35470075179051225 0.31962325167350114 0.39000983829175856 0.73295651107464233 0.43920887716004514 0.31134151520835401 0.36416025174264693 0.39830120834621247 0.34629429031360542 0.38015785932464635 0.48280885673878937 0.50965770453497317 0.32876203791313968 0.4165014013920238 0.53937121133155463 0.46038663266925556 0.57101838222906609 0.36063166404196084 0.36845062501511955 0.64900557463375663 0.3408082358428795 0.60672020009940908 0.38466810818539154 0.37496404913499276 0.37014973852155197 1.5189394319727298
decision_type=2 2 2 2 2 2 2 2 2 2 2 2 2 2 2 2 2 2 2 2 2 2 2 2 2 2 2 2 2 2 2 2 2 2 2 2 2 2 2
left_child=-1 3 5 7 10 12 15 14 32 24 29 26 28 21 18 22 -10 -13 -2 30 -17 33 36 -14 -7 -16 -8 -11 -3 -4 -15 38 -6 -9 -12 -24 -5 -33 -21
right_child=1 2 4 6 8 9 11 13 16 27 34 17 23 19 25 20 -18 -19 -20 31 -22 -23 35 -25 -26 -27 -28 -29 -30 -31 -32 37 -34 -35 -36 -37 -38 -39 -40
leaf_value=-0.012811019328250082 -0.0022033080218055476 0.0030231673190115587 0.0067522077331231183 0.00015908533540614743 0.0093875713127527741 0.0046798455458277556 0.001526177862366171 -0.0010559747568585404 0.011674609039349297 0.0056678701526836715 0.0079433282169214751 0.002251862102772889 0.0037721787680277093 -0.00038931559921521753 -0.0015518163976116206 0.00087168225841099045 0.014071088366872901 0.0026608544141173349 -0.0018480980184546426 -8.4441947408151713e-05 0.0012183117236358163 -0.00063381247268513592 0.0004713950490814494 0.0042012433279436066 0.0051537524481823022 -0.0012524857765982239 0.0018556686778408151 0.0061978578334092264 0.003373420597987016 0.0073322171689128666 -0.00021149603775903766 0 0.010250908121471601 -0.00085345447672992747 0.0086212707743499317 0.0006385655381444112 0.00029886554761021839 7.4215794432804771e-05 0
leaf_weight=3995 1402 700 500 300 300 700 700 600 200 700 400 1000 800 700 1100 900 100 1000 1000 478 1200 1000 500 900 800 900 1100 600 800 500 400 200 300 700 400 600 600 300 22
leaf_count=3995 1402 700 500 300 300 700 700 600 200 700 400 1000 800 700 1100 900 100 1000 1000 478 1200 1000 500 900 800 900 1100 600 800 500 400 200 300 700 400 600 600 300 22
internal_value=0 0.00201553 0.00575703 6.62676e-05 0.00864569 0.00445618 0.00141275 -0.00114166 0.0107245 0.00539348 0.00760298 0.00211524 0.00363434 -0.000512938 -0.00176894 0.000760405 0.0124945 0.00245898 -0.00205759 -0.000179471 0.00107219 -0.000815212 0.000430498 0.00400251 0.00493626 -0.00141969 0.0017304 0.00591678 0.00321351 0.00704792 -0.000329224 -9.72687e-06 0.00982921 -0.000950845 0.00828958 0.000567174 0.00025785 5.29187e-05 -8.23685e-05
internal_weight=0 25402 8700 16702 2700 6000 7900 8802 900 2800 1800 3800 3200 4400 4402 4100 300 2000 2402 2100 2100 2300 2000 1700 1500 2000 1800 1300 1500 1000 1100 1000 600 1300 800 1100 900 500 500
internal_count=29397 25402 8700 16702 2700 6000 7900 8802 900 2800 1800 3800 3200 4400 4402 4100 300 2000 2402 2100 2100 2300 2000 1700 1500 2000 1800 1300 1500 1000 1100 1000 600 1300 800 1100 900 500 500
is_linear=0
shrinkage=0.05


Tree=11
num_leaves=39
num_cat=0
split_feature=0 0 0 0 0 0 0 0 0 0 0 0 0 0 0 0 0 0 0 0 0 0 0 0 0 0 0 0 0 0 0 0 0 0 0 0 0 0
split_gain=273.962 66.8853 11.983 9.60059 2.0781 1.71726 1.28665 1.20806 0.408518 0.278201 0.220561 0.180023 0.177717 0.170308 0.148038 0.122563 0.0242386 0.0237517 0.0205022 0.0181002 0.0173181 0.0172986 0.0170074 0.0160503 0.0158676 0.0153493 0.0130446 0.0124141 0.0070054 0.0048942 0.00402045 0.00237236 0.00202554 0.00180392 0.001214 0.000985718 0.000593412 0.000217741
threshold=1.0000000180025095e-35 0.45049344837309235 0.55548879234996118 0.37183591387525905 0.63517448254253617 0.4973268062561384 0.4084320141977083 0.33369770029407858 0.70019623065170389 0.58894166583851326 0.52284983866645607 0.47155743470389594 0.35205061635199036 0.42790622530368855 0.39000983829175856 0.31467627688133665 0.36244734366414749 0.66807745007804054 0.73295651107464233 0.38015785932464635 0.61123686770559427 0.32297140954013243 0.3408082358428795 0.43811586074648406 0.53685537473539224 0.39748607724777602 0.41761337385328412 0.48454209465069059 0.4592780034574479 0.50787130875060427 0.30577316111888803 0.36666119562022975 0.35802461382410616 0.57101838222906609 0.34785905196031602 0.37496404913499276 0.38466810818539154 0.36928410244679216
decision_type=2 2 2 2 2 2 2 2 2 2 2 2 2 2 2 2 2 2 2 2 2 2 2 2 2 2 2 2 2 2 2 2 2 2 2 2 2 2
left_child=-1 3 5 7 9 11 14 15 17 33 29 28 22 26 19 30 32 -6 -10 35 -11 -17 -9 -15 -12 -16 -8 -13 -3 -7 -2 -18 -14 -4 -24 -5 -21 -33
right_child=1 2 4 6 8 10 13 12 18 20 24 27 16 23 25 21 31 -19 -20 36 -22 -23 34 -25 -26 -27 -28 -29 -30 -31 -32 37 -34 -35 -36 -37 -38 -39
leaf_value=-0.012170484526065298 -0.0022001066213700954 0.0028337977442945213 0.00641466486134593 0.00014296042084155781 0.0092911694719326025 0.0044124053692771994 0.0014562658138044238 -0.0010359555325607987 0.011416119992078005 0.0076284392205173317 0.00531767541732878 0.0036074132493301549 -0.00045155545731011992 0.0021177018251455882 0.00080896044716168209 -0.0016521316573899895 -0.00013328243199010986 0.010404711167911243 0.013368236900983634 0.00044783000679662292 0.008391307280216179 -0.0013313063941855848 -0.00079108942627947984 0.0024846311902975444 0.0058485102752901252 0.0011267563467756076 0.0017783606773766265 0.0040153525388847222 0.0031857045550086 0.0048340215619735883 -0.0019318358138618109 -1.1185791987041394e-05 -0.00027700917187643809 0.0069656796245378535 -0.00061144028885754063 0.00028392475805447636 0.00060664258748395353 4.2356329275708491e-05
leaf_weight=3995 702 700 500 400 400 600 900 900 100 500 700 900 700 900 800 1000 500 200 100 500 400 1300 900 1000 700 1200 1000 800 900 800 1100 300 500 500 500 600 600 300
leaf_count=3995 702 700 500 400 400 600 900 900 100 500 700 900 700 900 800 1000 500 200 100 500 400 1300 900 1000 700 1200 1000 800 900 800 1100 300 500 500 500 600 600 300
internal_value=0 0.00191494 0.00543895 4.66867e-05 0.0082142 0.00420963 0.0013089 -0.00109862 0.0103678 0.00730428 0.00512411 0.00343205 -0.000540699 0.00197241 0.00069268 -0.00172303 -0.000226932 0.00967235 0.0124234 0.000395499 0.00797394 -0.00147304 -0.000852269 0.00231357 0.00558706 0.00100218 0.00162851 0.00380255 0.00303506 0.00465723 -0.00203924 -5.20864e-05 -0.000383023 0.00669584 -0.000730548 0.000232558 0.000539047 7.25592e-06
internal_weight=0 25402 8800 16602 2700 6100 7900 8702 800 1900 2800 3300 4600 3800 4100 4102 2300 600 200 2100 900 2300 2300 1900 1400 2000 1900 1700 1600 1400 1802 1100 1200 1000 1400 1000 1100 600
internal_count=29397 25402 8800 16602 2700 6100 7900 8702 800 1900 2800 3300 4600 3800 4100 4102 2300 600 200 2100 900 2300 2300 1900 1400 2000 1900 1700 1600 1400 1802 1100 1200 1000 1400 1000 1100 600
is_linear=0
shrinkage=0.05


Tree=12
num_leaves=38
num_cat=0
split_feature=0 0 0 0 0 0 0 0 0 0 0 0 0 0 0 0 0 0 0 0 0 0 0 0 0 0 0 0 0 0 0 0 0 0 0 0 22
split_gain=247.258 60.3793 10.0961 9.43776 1.6167 1.58864 1.25225 1.21579 0.271243 0.238507 0.193343 0.186283 0.173305 0.170458 0.145646 0.129607 0.037019 0.0207484 0.0199865 0.0184362 0.0169884 0.015074 0.0142409 0.0138171 0.0120317 0.0119215 0.0110193 0.00751892 0.00664235 0.00652461 0.00582318 0.00204977 0.00200163 0.000830133 0.000478483 0.000178804 0.000175281
threshold=1.0000000180025095e-35 0.45541762242256917 0.56490017802087233 0.37496404913499276 0.50603515278002187 0.64900557463375663 0.33863232315152297 0.41551649242751071 0.60200357798299031 0.73295651107464233 0.47843119692535557 0.53246960632668761 0.39544847975634573 0.32029570872268437 0.35802461382410616 0.43581241691643119 0.68291581541597646 0.3854612943742764 0.31212342179198715 0.34785905196031602 0.49187813526918339 0.40572158404825037 0.36584470645590367 0.33049010788181149 0.62263795830587976 0.42568080737275477 0.46726466581158271 0.54707785835076095 0.44538892402108338 0.51851183178956572 0.58090530631612269 0.37101886299967074 0.38015785932464635 0.35295428715589905 0.36244734366414749 0.36845062501511955 284.93790842266054
decision_type=2 2 2 2 2 2 2 2 2 2 2 2 2 2 2 2 2 2 2 2 2 2 2 2 2 2 2 2 2 2 2 2 2 2 2 2 2
left_child=-1 3 4 6 10 8 13 12 30 16 26 29 17 18 19 25 -7 32 -2 -8 -12 -14 34 -15 -10 -9 -3 -13 -17 -6 -4 35 -5 -21 -16 -24 -36
right_child=1 2 5 7 11 9 14 15 24 -11 20 27 21 23 22 28 -18 -19 -20 33 -22 -23 31 -25 -26 -27 -28 -29 -30 -31 -32 -33 -34 -35 36 -37 -38
leaf_value=-0.011561975404998752 -0.0019787966991762895 0.0028953394560486245 0.0063956439544250662 0.00026973088644872094 0.0044954505471685342 0.0092555770453752097 -0.00079251802106772122 0.0016237868620951571 0.0076100634023178459 0.012700492712286685 0.0036451127761725575 0.0053530333478328416 0.00099709072647994365 -0.0013622649467978048 -0.00026316148288547714 0.0022435992789009989 0.01054592210015674 0.00067361456456710759 -0.0016403943623197565 -0.00056887895350322439 0.0040864401398122557 0.0013037363573485655 -3.6492932824134555e-05 -0.0010687548545667016 0.0083729317164576017 0.001941688730526389 0.0032692526247729034 0.0058630512967405273 0.0025646804969391367 0.00492859210410879 0.0069819366856232528 0.00012648729050752464 0.00043883798891384987 -0.00041566498237592572 -0.0001501792722632006 1.3367912059781757e-05 0
leaf_weight=3995 1502 900 500 600 700 300 1200 1000 400 100 900 600 1100 1200 500 800 200 1100 1000 600 800 1000 300 1000 400 900 800 600 800 700 500 500 600 600 372 300 28
leaf_count=3995 1502 900 500 600 700 300 1200 1000 400 100 900 600 1100 1200 500 800 200 1100 1000 600 800 1000 300 1000 400 900 800 600 800 700 500 500 600 600 372 300 28
internal_value=0 0.00181936 0.00528743 0.000105607 0.00418925 0.00803053 -0.000991557 0.00137034 0.00727733 0.0102802 0.00346677 0.00513194 0.000815214 -0.00155922 -0.000383771 0.00206673 0.00978372 0.000511393 -0.00184561 -0.000646609 0.00385597 0.00114555 -6.58485e-05 -0.00123118 0.00799875 0.0017771 0.00307442 0.00561268 0.00240741 0.00471593 0.00669446 5.11921e-05 0.00035848 -0.000496479 -0.000214443 -3.23249e-06 -0.000140997
internal_weight=0 25402 8400 17002 6000 2400 9102 7900 1800 600 3400 2600 4400 4702 4400 3500 500 2300 2502 2400 1700 2100 2000 2200 800 1900 1700 1200 1600 1400 1000 1100 1200 1200 900 600 400
internal_count=29397 25402 8400 17002 6000 2400 9102 7900 1800 600 3400 2600 4400 4702 4400 3500 500 2300 2502 2400 1700 2100 2000 2200 800 1900 1700 1200 1600 1400 1000 1100 1200 1200 900 600 400
is_linear=0
shrinkage=0.05


Tree=13
num_leaves=36
num_cat=0
split_feature=0 0 0 0 0 0 0 0 0 0 0 0 0 0 0 0 0 0 0 0 0 0 0 0 0 0 0 0 0 0 0 0 0 0 0
split_gain=223.157 54.5052 9.76684 7.82617 1.69746 1.39782 1.04787 0.984363 0.284072 0.274321 0.177942 0.145728 0.144395 0.137963 0.120647 0.0994688 0.0220697 0.0205436 0.0154623 0.0146423 0.0138452 0.012202 0.0116702 0.0112441 0.00793042 0.00763032 0.00722061 0.00576292 0.00554657 0.00528774 0.00336282 0.00265534 0.00118633 0.000708815 0.000290552
threshold=1.0000000180025095e-35 0.45049344837309235 0.55548879234996118 0.37183591387525905 0.64261493251139157 0.4973268062561384 0.4084320141977083 0.33369770029407858 0.59710708474945295 0.70019623065170389 0.52469113369017928 0.47291693580450733 0.3512762615907854 0.42684470087534598 0.38908717781125834 0.31467627688133665 0.3615480292140254 0.57759323586943756 0.4370634933911231 0.39748607724777602 0.32374919945855324 0.38015785932464635 0.3408082358428795 0.73295651107464233 0.46038663266925556 0.4165014013920238 0.51104710627665495 0.61699699630410532 0.53937121133155463 0.48581387571931334 0.30493353272520235 0.36584470645590367 0.35719042004440221 0.37496404913499276 0.36845062501511955
decision_type=2 2 2 2 2 2 2 2 2 2 2 2 2 2 2 2 2 2 2 2 2 2 2 2 2 2 2 2 2 2 2 2 2 2 2
left_child=-1 3 5 7 8 11 14 15 17 -6 26 24 22 25 21 30 32 -4 -15 -16 -17 33 -9 -11 -3 -8 -7 -10 -12 -13 -2 -18 -14 -5 -33
right_child=1 2 4 6 9 10 13 12 27 23 28 29 16 18 19 20 31 -19 -20 -21 -22 -23 -24 -25 -26 -27 -28 -29 -30 -31 -32 34 -34 -35 -36
leaf_value=-0.010983891109219691 -0.0020116957563463289 0.0025783597510422099 0.0058834275149086722 0.00012949140296335479 0.008871489681915817 0.004038497990532945 0.0012972924711201104 -0.00093533513183803683 0.0070770853167174894 0.010319114926752153 0.0048593919054301634 0.0032957762469435223 -0.00042832626499023085 0.0018786163901093403 0.00071902269723179198 -0.0014784746490701332 -0.00014848539006311889 0.0065157354494805968 0.0022261598667167293 0.0010167400874154025 -0.0011890609540140249 0.00047107752341295271 -0.00067143270909612439 0.012066102592082887 0.0029155904395509304 0.0015730725320084204 0.0044464765112581569 0.0077631314391942057 0.0053152844212965419 0.0036482587372630073 -0.0017515017007376 -3.4668894202363042e-05 -0.00027729453167354333 0.00025624658941077915 3.0231924482268752e-05
leaf_weight=3995 602 800 700 400 500 800 800 900 400 100 700 900 700 900 900 1100 500 500 1100 1200 1200 1000 1300 100 900 1000 700 400 600 700 1200 300 500 600 400
leaf_count=3995 602 800 700 400 500 800 800 900 400 100 700 900 700 900 900 1100 500 500 1100 1200 1200 1000 1300 100 900 1000 700 400 600 700 1200 300 500 600 400
internal_value=0 0.00172856 0.00490976 4.20192e-05 0.00741545 0.00379976 0.00118166 -0.000992016 0.00666471 0.00955205 0.00462517 0.00309777 -0.000488237 0.00178051 0.000625373 -0.00155571 -0.000217121 0.00615158 0.00207237 0.000891568 -0.00132971 0.000343337 -0.000781703 0.0112232 0.00276 0.00145336 0.0042325 0.00742728 0.00507404 0.00345333 -0.00184131 -6.04665e-05 -0.000369591 0.000210562 0
internal_weight=0 25402 8800 16602 2700 6100 7900 8702 2000 700 2800 3300 4600 3800 4100 4102 2400 1200 2000 2100 2300 2000 2200 200 1700 1800 1500 800 1300 1600 1802 1200 1200 1000 700
internal_count=29397 25402 8800 16602 2700 6100 7900 8702 2000 700 2800 3300 4600 3800 4100 4102 2400 1200 2000 2100 2300 2000 2200 200 1700 1800 1500 800 1300 1600 1802 1200 1200 1000 700
is_linear=0
shrinkage=0.05


Tree=14
num_leaves=38
num_cat=0
split_feature=0 0 0 0 0 0 0 0 0 0 0 0 0 0 0 0 0 0 0 0 0 0 0 0 0 0 0 0 0 0 0 0 0 22 0 0 0
split_gain=201.404 49.2038 8.08512 7.85392 1.29742 1.26176 1.03399 1.02087 0.216607 0.19095 0.149641 0.148258 0.142855 0.141253 0.115028 0.110705 0.021304 0.0148048 0.014723 0.0127824 0.0116429 0.0115231 0.00988997 0.00842767 0.00801835 0.00694519 0.00663002 0.00483993 0.0040009 0.00365864 0.00226162 0.00169321 0.00125793 0.000362608 0.000335872 0.000143692 4.10873e-05
threshold=1.0000000180025095e-35 0.45669783104015804 0.56490017802087233 0.37496404913499276 0.64900557463375663 0.50603515278002187 0.41551649242751071 0.33933143244888858 0.60200357798299031 0.70019623065170389 0.53246960632668761 0.32199308959615619 0.48126205688520324 0.39458040989633963 0.43462580038359533 0.35802461382410616 0.31212342179198715 0.40476408016496784 0.38290998954105337 0.34953263190637296 0.36584470645590367 0.47000980583432245 0.44655667654659775 0.33224773936658875 0.73295651107464233 0.42365521468123413 0.62263795830587976 0.49375267635321179 0.54707785835076095 0.51851183178956572 0.58506864938767478 0.37101886299967074 0.38730977749753953 399.08290869685317 0.36324285497811765 0.36845062501511955 0.37751387273833142
decision_type=2 2 2 2 2 2 2 2 2 2 2 2 2 2 2 2 2 2 2 2 2 2 2 2 2 2 2 2 2 2 2 2 2 2 2 2 2
left_child=-1 3 5 7 8 12 13 11 30 -6 29 16 21 18 25 19 -2 -15 36 -9 33 -3 -16 -13 -11 -8 -10 -14 -12 -7 -4 35 -20 34 -17 -22 -5
right_child=1 2 4 6 9 10 14 15 26 24 28 23 27 17 22 20 -18 -19 32 -21 31 -23 -24 -25 -26 -27 -28 -29 -30 -31 -32 -33 -34 -35 -36 -37 -38
leaf_value=-0.010434710393015882 -0.0017870802512900442 0.0026712057958744894 0.0058229582239897769 0.00019584917605026394 0.0085807838221842927 0.0040571592007470356 0.0014327645959017604 -0.00068103880185730107 0.0068673160505336511 0.0098036745390096512 0.0048311018032235831 -0.0011788410479096551 0.0033527793259605617 0.00087217647920416583 0.002024609568699153 -0.00023310443549244263 -0.001463215625494515 0.0011654696744160537 0.00045264465646835785 -0.00042283100995256723 -3.2936027355435711e-05 0.0030322515312011891 0.0023494382257007716 -0.00092973202636550056 0.01146340010376958 0.0017072178711713332 0.0075524792447593083 0.0037134450689381726 0.0052900264452763589 0.0044481097240734735 0.0063618694328496043 0.00011468331125333227 0.00062136212173814894 0 -0.00011382072563489498 1.1188646810579389e-05 0.00031623713714146081
leaf_weight=3995 1502 1000 600 300 400 700 800 1300 400 100 600 1200 800 1100 1000 583 1200 1100 500 1000 300 800 800 900 100 1000 400 700 600 700 400 500 800 20 297 300 600
leaf_count=3995 1502 1000 600 300 400 700 800 1300 400 100 600 1200 800 1100 1000 583 1200 1100 500 1000 300 800 800 900 100 1000 400 700 600 700 400 500 800 20 297 300 600
internal_value=0 0.00164228 0.00480106 0.000108946 0.00725016 0.00380386 0.00125211 -0.000895267 0.00656858 0.00928513 0.00463183 -0.00139667 0.00314988 0.000736047 0.00188143 -0.000334144 -0.00164516 0.00102114 0.000448647 -0.000570972 -5.92785e-05 0.00283461 0.00217188 -0.00107451 0.0106638 0.0015881 0.00721705 0.00352466 0.00506515 0.00425651 0.00604414 4.62019e-05 0.000560356 -0.000193745 -0.000198545 -2.54356e-06 0.000281689
internal_weight=0 25402 8300 17102 2400 5900 8000 9102 1800 600 2600 4802 3300 4400 3600 4300 2702 2200 2200 2300 2000 1800 1800 2100 200 1800 800 1500 1200 1400 1000 1100 1300 900 880 600 900
internal_count=29397 25402 8300 17102 2400 5900 8000 9102 1800 600 2600 4802 3300 4400 3600 4300 2702 2200 2200 2300 2000 1800 1800 2100 200 1800 800 1500 1200 1400 1000 1100 1300 900 880 600 900
is_linear=0
shrinkage=0.05


Tree=15
num_leaves=64
num_cat=0
split_feature=22 7 2 20 5 1 11 3 21 17 10 15 17 9 12 21 3 9 2 30 30 19 17 15 20 3 20 12 2 6 27 32 26 23 27 19 33 24 6 30 28 30 30 1 24 36 1 36 14 24 32 34 33 33 32 31 26 26 30 5 33 30 1
split_gain=0.280333 0.180323 0.240863 0.175354 0.16951 0.181373 0.271913 0.26721 0.237924 0.22335 0.219705 0.20955 0.205848 0.177287 0.144221 0.139837 0.137285 0.130481 0.124441 0.113923 0.12512 0.111799 0.0947443 0.165429 0.0989967 0.0924068 0.092854 0.0912053 0.0875322 0.0744991 0.0712457 0.0690903 0.0641372 0.0622413 0.0821798 0.0662175 0.0642294 0.0795549 0.06095 0.058884 0.0696533 0.0546781 0.0545519 0.0542466 0.0527746 0.0516769 0.0502257 0.0499882 0.0450305 0.0438465 0.0420208 0.0417542 0.041066 0.0408099 0.0401072 0.0356225 0.0351215 0.0657311 0.034833 0.0339461 0.0338101 0.0272745 0.0326744
threshold=399.08290869685317 1.0730818717401653 -1.5983344395819816 1.961760697333683 2.0841314857792437 -0.51061603764296593 1.2586958379597875 -0.69013441319021651 0.28979055513094981 1.0416830709001175 -0.39865960399441769 -2.3875470353210315 0.028929610677706743 1.5264243723010746 1.2117548669316986 0.019198321238238808 -2.0855699790503279 2.4826604451931371 -2.5421043288241418 -0.11108709785013655 -0.70832342622625821 -1.3954348207993503 0.54487669184728904 1.2177709983363567 0.7007034052825617 0.47063493036390036 -0.32496474320071561 1.6479957422285179 1.0961348777964204 1.3633027443352954 0.35647586637384232 0.1197040966435455 -0.55554001335791392 11.500000000000002 -1.1427076607270832 -0.014859068023898249 -1.1800091487521784 0.82398063054560955 0.44436422669370462 -0.098380223841105049 -0.64969848636416205 0.22713025485344493 -0.41165825676291873 1.0928491851967055 -0.63390963721285887 0.81947003450573208 0.85101771590862441 0.68859629317261051 0.91887980031847205 0.96601055988860562 0.41094680875836642 0.18077110861209975 -0.055248752349226521 0.58732705663509466 -0.41220438152954536 0.47816938763775946 0.47586953005153715 -0.37172374208893638 -0.076443324774437896 2.4705596719958578 -0.23581388708439618 -0.60976067518351595 -1.7708802021335062
decision_type=2 2 2 2 2 2 2 2 2 2 2 2 2 2 2 2 2 2 2 2 2 2 2 2 2 2 2 2 2 2 2 2 2 2 2 2 2 2 2 2 2 2 2 2 2 2 2 2 2 2 2 2 2 2 2 2 2 2 2 2 2 2 2
left_child=1 4 19 17 5 6 7 8 10 13 -1 28 -10 -9 -11 31 50 21 -18 20 47 39 24 -24 -23 48 -27 38 32 33 58 -13 41 34 -2 -35 -36 45 52 55 -41 -7 -29 60 -37 46 -38 -3 51 -28 -17 -8 -6 54 -46 -4 57 -21 -5 -54 -19 -31 -63
right_child=29 2 3 30 27 11 25 9 12 14 -12 15 -14 -15 -16 16 18 43 -20 56 -22 22 23 -25 -26 26 49 42 -30 61 -32 -33 -34 35 36 44 37 -39 -40 40 -42 -43 -44 -45 53 -47 -48 -49 -50 -51 -52 -53 59 -55 -56 -57 -58 -59 -60 -61 -62 62 -64
leaf_value=-0.0010569462223694139 0.00021336678867274738 -0.0029224869262171084 -0.00017552808672964895 0.00061512647254360669 0.00057729865790757007 -0.0018599786026685301 -0.00085317152018894434 -0.00016607089145693929 -0.0023324862189686691 0.0010482799925139107 0.00053308557492023228 -0.0046128282769990368 -0.0006735513634564276 -0.0012799403630771907 -0.00095966972241144166 0.00073730166085275186 -0.0015647309614420777 -0.0005729936600769337 9.7311424197011926e-05 0.00078241313835513164 -0.0053614708097878081 0.00054950812545650422 0.00041506006424143007 -0.0015302502363793969 0.0012661724068973486 -4.3524076750474993e-05 0.002432325605004948 -0.00057115483100755849 0.00057509511498476029 0.0018116418269940129 -0.0030173099145487017 -0.00045860737637269964 -0.0024248395539916891 0.00044504537590841543 -5.5376042527381945e-05 0.00047489338338163221 -0.0032153356614132247 0 -0.0033002818212381083 0.00074483799583523387 -0.0017790230211793341 0.001522569369845518 -0.0038150787338341327 0 -0.00085406050002619397 -0.0049828713558658323 -0.00033638967740681807 0.0002241724736587816 0.0014578919916664078 0 0.0021438899818243466 0.00038653640674186007 1.9535466569232255e-06 -0.00022746043238322758 -0.0040810858723890385 0.0017236658022387282 0.0013457007780751755 -0.002224020430692785 -0.0015731790146033915 -0.0018437525850342298 -0.0035685967600086878 -0.0019485872898271667 0.0006104840731001827
leaf_weight=453 30 21 84 35 67 25 92 4420 385 554 413 23 385 391 104 174 113 20 16117 30 32 2053 700 129 654 62 154 23 41 20 47 23 141 66 28 21 76 23 20 33 111 22 49 32 20 39 24 25 69 23 90 254 37 24 33 33 23 40 34 53 31 20 29
leaf_count=453 30 21 84 35 67 25 92 4420 385 554 413 23 385 391 104 174 113 20 16117 30 32 2053 700 129 654 62 154 23 41 20 47 23 141 66 28 21 76 23 20 33 111 22 49 32 20 39 24 25 69 23 90 254 37 24 33 33 23 40 34 53 31 20 29
internal_value=0 2.04389e-05 0.000324857 0.000404494 -3.05575e-05 -1.71715e-05 -0.000217219 -0.000307525 -0.000868718 -0.000138722 -0.000292905 7.50929e-05 -0.00150971 -0.000257661 0.000723219 9.61775e-05 0.000104155 0.000462764 8.5422e-05 -0.00150607 -0.00292114 0.000506629 0.000580987 0.000106173 0.000724539 0.000756108 0.00154407 -0.00132856 -0.00142534 -0.00123293 -0.00150017 -0.00264968 -0.00188826 -0.00150652 -0.00206888 -0.000720869 -0.00245545 -0.00283915 -0.00068001 -0.00048144 -0.00116582 -0.00017063 -0.0028504 -0.00148199 -0.0015567 -0.00328989 -0.00257536 -0.00110711 0.000290008 0.00212813 0.00123638 4.23051e-05 -0.000312502 -0.00217552 -0.0029614 0.000318458 -0.000263662 -0.000864944 -0.000391526 -0.00103031 -0.00249512 0.000217257 -0.000334043
internal_weight=0 28944 4167 3996 24777 24528 7759 7105 1636 5469 866 16769 770 4811 658 16540 16494 3880 16230 171 78 3797 3536 829 2707 654 239 249 229 453 116 46 188 384 220 164 190 162 177 261 144 47 72 83 98 139 100 46 415 177 264 346 157 77 53 117 93 70 69 90 51 69 49
internal_count=29397 28944 4167 3996 24777 24528 7759 7105 1636 5469 866 16769 770 4811 658 16540 16494 3880 16230 171 78 3797 3536 829 2707 654 239 249 229 453 116 46 188 384 220 164 190 162 177 261 144 47 72 83 98 139 100 46 415 177 264 346 157 77 53 117 93 70 69 90 51 69 49
is_linear=0
shrinkage=0.05


Tree=16
num_leaves=64
num_cat=0
split_feature=22 7 2 20 1 12 21 29 1 15 8 8 7 13 7 12 30 9 30 30 19 12 22 15 20 19 1 27 33 33 30 29 27 18 15 19 27 27 20 1 26 2 26 32 34 25 27 34 26 13 32 33 30 12 32 33 36 27 32 19 27 1 25
split_gain=0.253625 0.1627 0.21713 0.15836 0.156797 0.153535 0.143111 0.15264 0.150553 0.142056 0.129294 0.244366 0.202888 0.219056 0.181786 0.157621 0.120413 0.117935 0.103764 0.12304 0.10082 0.0916551 0.0911543 0.150273 0.0890512 0.0833424 0.0802256 0.0784337 0.0967104 0.0761686 0.0730875 0.0725127 0.0706866 0.113157 0.0679134 0.0921773 0.0842932 0.0733442 0.0650942 0.0643724 0.061162 0.0584471 0.0709683 0.064369 0.0563333 0.0596869 0.0548706 0.0537419 0.0536326 0.0566098 0.0741019 0.0596607 0.0529599 0.0668548 0.0512426 0.0493292 0.0453456 0.0442367 0.0385093 0.0359114 0.0366882 0.0354123 0.0347019
threshold=399.08290869685317 1.0730818717401653 -1.5983344395819816 1.961760697333683 -1.5243560378542564 0.36777590130817966 0.019198321238238808 -0.84245088795648326 1.83904788095101 -2.3875470353210315 0.99274496980714488 1.1302963621432267 -0.9047287360585462 0.8718854485555485 -0.44934912716180925 -2.0927750939955501 0.83774290422721587 2.4826604451931371 -0.13325636815294947 -0.70832342622625821 -1.3954348207993503 -1.2950631634414844 199.88905827482225 1.1385960281848135 0.7007034052825617 -0.67866446182689721 -1.7708802021335062 -0.92488165934453825 0.15803176878731809 0.24072304617647619 -0.15730036004246453 -0.29975742214083373 -0.9808544159109126 -0.60551333733474022 -0.030876714516116611 0.076398665968852017 -0.30560703351000829 0.064335283536421803 1.0000000180025095e-35 0.92872883332392009 0.1124779372800566 0.32982132125896879 0.92185508295026886 0.75564898649047474 0.26086548694910072 -0.62397955206022149 0.2637242448913521 0.38592144219404145 0.039297584686041338 0.5084255227350456 -0.38829499591134858 -0.1808858844818039 -0.098380223841105049 -1.1482125386359294 0.1197040966435455 -0.49250390779616432 0.68859629317261051 0.67195688882659865 0.14058740905383743 0.74837081378511094 -1.0815710515913259 0.17387936934151052 0.21508389743327871
decision_type=2 2 2 2 2 2 2 2 2 2 2 2 2 2 2 2 2 2 2 2 2 2 2 2 2 2 2 2 2 2 2 2 2 2 2 2 2 2 2 2 2 2 2 2 2 2 2 2 2 2 2 2 2 2 2 2 2 2 2 2 2 2 2
left_child=1 4 18 17 5 16 7 -6 31 25 12 30 15 -14 -13 -11 21 20 19 56 52 44 24 -24 -22 40 58 38 -29 -28 -12 -9 33 -7 -2 -36 59 -38 -23 47 -8 43 -43 -27 45 -1 -46 61 -34 51 -51 -50 -4 -54 -19 -39 -3 -57 -18 60 -37 -5 -33
right_child=34 2 3 39 6 32 9 8 -10 10 11 14 13 -15 -16 -17 26 54 -20 -21 22 27 23 -25 -26 41 29 28 -30 -31 -32 62 48 -35 35 36 37 55 -40 -41 -42 42 -44 -45 46 -47 -48 -49 49 50 -52 -53 53 -55 -56 57 -58 -59 -60 -61 -62 -63 -64
leaf_value=-0.0013128733759686958 -0.0021699272715130346 -0.0027770553450833925 0.00030046621763825827 -0.0026955665160354192 -0.0057672521840799506 -0.0042692698238573426 -0.0007416980002414097 -0.0021547688244096053 -0.0043749163701986178 -0.0029155680988754234 0.0017826096261199871 0.00052440525215382552 -3.3176040432405927e-05 0.00048871272634515761 -0.00017409214437312103 -0.00030371294090314189 0 -0.0026072106000280173 -0.00026831757558801547 -0.0053431194376175684 0.00049523013229821572 -0.0020105103023072002 0.00033978551700251757 -0.0022479005220056949 0.0011585325335269057 -0.0021246603319831575 0.00020854392520341521 -0.0026009828258235774 -0.00094874917469125292 -0.0037676089901203438 0.00065735434744572938 1.3825746414754083e-05 0.0010192188909027467 2.2921885194671777e-05 0.00039365204176006137 0.0024295304440870064 -0.0042839571213771476 -0.0033453368436200791 0.0013451424539553574 -0.0035051862883647179 -0.0045079165709229372 0.00071055838306577444 -0.0023715429658118584 0.00069970927106466525 -0.0020021106118653059 0.0017264019054599559 0.00017056855486217006 0.0014114419030361054 0.001580998919955521 -0.0036208656861308713 -5.9572657765801256e-05 -0.00053377042067276044 -4.7879756822414153e-05 -0.0022785373906308716 0 0.00034097753659342796 0.00021300849759891169 -0.0019294873983992256 0.0018896456900596714 -0.0014545134286003355 -0.00020719190987049016 -0.00019737111883098648 0.0028667883514934237
leaf_weight=22 128 21 117 30 20 22 23 21 23 59 287 1588 12086 2409 2239 4128 64 43 95 30 2577 24 234 73 652 88 23 234 162 21 331 29 190 43 108 20 32 26 36 29 29 95 23 23 64 50 46 21 63 23 48 66 78 66 40 41 25 39 54 29 30 36 21
leaf_count=22 128 21 117 30 20 22 23 21 23 59 287 1588 12086 2409 2239 4128 64 43 95 30 2577 24 234 73 652 88 23 234 162 21 331 29 190 43 108 20 32 26 36 29 29 95 23 23 64 50 46 21 63 23 48 66 78 66 40 41 25 39 54 29 30 36 21
internal_value=0 1.93621e-05 0.000308528 0.00038419 -2.90691e-05 -0.000573586 0 -0.00176649 -0.000856904 8.59598e-06 2.23875e-05 0.000264884 -3.50431e-05 5.32172e-05 0.000114447 -0.00034178 -0.000991464 0.000439613 -0.00142954 -0.0028131 0.000481365 -0.00130163 0.000552009 -0.000259778 0.000630744 -0.00110829 0.000199258 -0.00168291 -0.0019381 -0.00158003 0.00118822 0.000216961 0.000150213 -0.00135734 -0.00117281 -0.000764173 -0.00136336 -0.00210903 0 -0.00142533 -0.00294268 -0.000668825 6.59734e-05 -0.00149432 -0.000318473 0.000727853 -0.00104879 -0.000671415 0.000414573 -0.000135076 -0.00128702 0.000460719 -0.0004564 -0.00110583 -0.00140853 -0.0014019 -0.00104662 -0.000704479 0.000905833 0 0.000750441 -0.00141092 0.0013152
internal_weight=0 28944 4167 3996 24777 1255 23522 114 94 23408 23127 4445 18682 14495 3827 4187 800 3880 171 76 3797 638 3536 307 3229 281 162 456 396 44 618 71 455 65 453 325 217 138 60 116 52 229 118 111 182 72 110 87 390 200 71 129 261 144 83 106 46 80 118 79 50 66 50
internal_count=29397 28944 4167 3996 24777 1255 23522 114 94 23408 23127 4445 18682 14495 3827 4187 800 3880 171 76 3797 638 3536 307 3229 281 162 456 396 44 618 71 455 65 453 325 217 138 60 116 52 229 118 111 182 72 110 87 390 200 71 129 261 144 83 106 46 80 118 79 50 66 50
is_linear=0
shrinkage=0.05


Tree=17
num_leaves=37
num_cat=0
split_feature=0 0 0 0 0 0 0 0 0 0 0 0 0 0 0 0 0 0 0 0 0 0 0 0 0 0 0 0 0 0 0 22 0 0 22 0
split_gain=180.598 44.2564 8.07976 6.22174 1.45799 1.10106 0.811249 0.80032 0.317998 0.160893 0.136566 0.123784 0.113322 0.100817 0.0978995 0.0742446 0.0449267 0.0177533 0.0116709 0.0111629 0.00982919 0.00850987 0.00715926 0.00530339 0.00453077 0.00452887 0.00423587 0.002526 0.00193718 0.00154476 0.00129719 0.000480953 0.00038367 0.000187758 0.00015929 7.63233e-05
threshold=1.0000000180025095e-35 0.44895470278133182 0.55254152272705725 0.37183591387525905 0.62858345603585553 0.49547861887364214 0.4084320141977083 0.33301177671781063 0.68291581541597646 0.58506864938767478 0.52079625088495041 0.3512762615907854 0.47155743470389594 0.42684470087534598 0.39000983829175856 0.31546624905128368 0.73295651107464233 0.36244734366414749 0.38015785932464635 0.34230572745511184 0.39830120834621247 0.43581241691643119 0.3246393724557905 0.4186202386629308 0.4592780034574479 0.53471393785757126 0.30663918621808722 0.48280885673878937 0.60672020009940908 0.36757662988298806 0.35802461382410616 229.13081203083973 0.37496404913499276 0.38466810818539154 334.45063945987596 0.36928410244679216
decision_type=2 2 2 2 2 2 2 2 2 2 2 2 2 2 2 2 2 2 2 2 2 2 2 2 2 2 2 2 2 2 2 2 2 2 2 2
left_child=-1 3 5 7 9 12 14 15 -6 -4 -7 19 24 23 18 26 -10 30 32 -9 -16 -15 -17 -8 -3 -12 -2 -14 -11 31 -13 -19 -5 -20 -32 -31
right_child=1 2 4 6 8 10 13 11 16 28 25 17 27 21 20 22 -18 29 33 -21 -22 -23 -24 -25 -26 -27 -28 -29 -30 35 34 -33 -34 -35 -36 -37
leaf_value=-0.0098811599302210118 -0.0017883736110983117 0.0022928122275528377 0.0053557813952039715 0.00011662464730316171 0.0075863591391749034 0.0037350328801321261 0.0011959705031244572 -0.00083181528226821874 0.0090661017709169189 0.0060856089241753527 0.0042682954069631915 -0.00037637743137372266 0.0029087277197037738 0.0016729201066206804 0.00066941813852140536 -0.0013146701543196564 0.01087565221837708 -0.00011834854646241571 0.00035797228706635888 -0.00058450562985793461 0.00092666594047631349 0.0019670021760273813 -0.0010751221357795321 0.0014400832463507948 0.0025860501164188653 0.0046755657486490928 -0.0015455376179608626 0.0032165101656350115 0.0066558886502823579 0 -0.00023805359353490103 0 0.00022466620069147081 0.00049083875831897256 0 2.8758256179423416e-05
leaf_weight=3995 802 800 1000 400 600 1400 1000 1200 200 500 700 800 800 800 900 1100 100 520 500 1100 1100 1100 1000 800 900 700 1100 800 400 200 479 80 600 600 21 300
leaf_count=3995 802 800 1000 400 600 1400 1000 1200 200 500 700 800 800 800 900 1100 100 520 500 1100 1100 1100 1000 800 900 700 1100 800 400 200 479 80 600 600 21 300
internal_value=0 0.00155501 0.00439682 2.20209e-05 0.0066223 0.00337437 0.00104777 -0.000896834 0.00829392 0.00582746 0.00410736 -0.000452786 0.00275082 0.00158528 0.000561456 -0.00141706 0.00968937 -0.000198685 0.00031906 -0.000715741 0.000813444 0.0018459 -0.00120304 0.00130732 0.00245114 0.00447582 -0.00165065 0.00306594 0.00634533 -4.55033e-05 -0.000324441 -0.000100675 0.000186465 0.000435028 -0.000231287 1.07121e-05
internal_weight=0 25402 8900 16502 2800 6100 7800 8702 900 1900 2800 4700 3300 3700 4100 4002 300 2400 2100 2300 2000 1900 2100 1800 1700 1400 1902 1600 900 1100 1300 600 1000 1100 500 500
internal_count=29397 25402 8900 16502 2800 6100 7800 8702 900 1900 2800 4700 3300 3700 4100 4002 300 2400 2100 2300 2000 1900 2100 1800 1700 1400 1902 1600 900 1100 1300 600 1000 1100 500 500
is_linear=0
shrinkage=0.05


Tree=18
num_leaves=64
num_cat=0
split_feature=22 7 2 20 1 21 29 1 15 18 18 10 18 32 9 7 27 10 30 30 23 25 17 15 10 20 13 8 10 25 34 27 29 26 27 6 25 36 24 23 9 26 23 30 26 1 30 24 34 36 1 24 33 26 33 26 36 9 33 30 25 32 25
split_gain=0.200859 0.129921 0.174144 0.12743 0.126284 0.113835 0.122722 0.119445 0.111047 0.109769 0.119576 0.136239 0.104553 0.0950282 0.0940431 0.0860116 0.159432 0.0848414 0.0832675 0.0983973 0.0829715 0.0898022 0.0827849 0.110114 0.116253 0.0919088 0.094334 0.0809474 0.075044 0.0741963 0.104614 0.0770568 0.0585425 0.0574153 0.0570664 0.056976 0.0659721 0.0577052 0.05736 0.0678181 0.0519023 0.0481618 0.0467742 0.0456594 0.0921385 0.0427114 0.0425794 0.0417662 0.0369862 0.0364596 0.0363808 0.0519524 0.0311061 0.0287375 0.0581182 0.0623757 0.0286692 0.028382 0.0278778 0.0277856 0.0274971 0.0246498 0.0245985
threshold=399.08290869685317 1.0730818717401653 -1.5983344395819816 1.961760697333683 -1.5243560378542564 0.019198321238238808 -0.84245088795648326 1.83904788095101 -2.3875470353210315 -2.1908590598885294 -2.0191439165856138 -0.028994650407591967 2.0966442442119892 1.63400093169187 2.4826604451931371 0.68388749457625997 -0.99884383574160107 -0.6110430932831733 -0.13325636815294947 -0.70832342622625821 14.500000000000002 0.12505711477807538 0.54487669184728904 1.2177709983363567 -1.5353276919154448 0.7007034052825617 1.4079267475725279 1.4866716598256782 -0.8237836971861493 -0.53093286396106898 0.45809991167794101 0.6966709259837256 -0.29975742214083373 0.056831524897095843 0.35647586637384232 1.3633027443352954 1.5714886544989077 0.8642465940087275 1.2915778145264192 11.500000000000002 1.5264243723010746 -0.55554001335791392 13.500000000000002 0.14228531805861014 0.17515518676448311 1.0928491851967055 0.22713025485344493 -0.57105798512372585 0.37182913999560824 0.68859629317261051 0.11387249695664385 0.71280768609049094 1.1333336436315495 0.47586953005153715 0.66241008807322088 -0.55108164986893338 0.61007403054758258 0.084368980061018908 -0.23581388708439618 -0.076443324774437896 0.21508389743327871 -0.040647964236172403 -0.29478142190675399
decision_type=2 2 2 2 2 2 2 2 2 2 2 2 2 2 2 2 2 2 2 2 2 2 2 2 2 2 2 2 2 2 2 2 2 2 2 2 2 2 2 2 2 2 2 2 2 2 2 2 2 2 2 2 2 2 2 2 2 2 2 2 2 2 2
left_child=1 4 18 14 13 6 -6 32 17 50 11 -11 -12 15 22 20 -17 -7 19 49 28 -22 25 24 -24 26 -4 -25 33 31 -31 -18 -8 -1 59 36 37 38 39 43 -30 46 -27 48 -45 58 -19 -39 -2 -3 51 -10 -52 54 55 -20 62 -15 -16 -5 -34 -43 -41
right_child=35 2 3 34 5 8 7 -9 9 10 12 -13 -14 57 45 16 29 41 53 -21 21 -23 23 27 -26 42 -28 -29 40 30 -32 -33 60 -35 -36 -37 -38 47 -40 56 -42 61 -44 44 -46 -47 -48 -49 -50 -51 52 -53 -54 -55 -56 -57 -58 -59 -60 -61 -62 -63 -64
leaf_value=-0.00021131152251727356 -0.0031727009916776849 -0.0024806570558548323 0.00028717280768624014 0.00061323606714929998 -0.0051666857938824301 0.00020854494418892874 -0.0019259824803467595 -0.0038886390430893088 -0.0002876728991113953 -0.0025808158731768665 4.8012581442620227e-06 6.0234948294737433e-05 0.00095724665783547167 0.0027739237371289752 -0.00039483778087760492 -0.0051523591015432925 -0.0039289628370450091 -0.0015978881362009333 0.00022848696350606518 -0.0047872982386258298 0 -0.0038956928587108273 -0.0019368716783241789 -0.0021038835529048568 0.00041873236302287847 0.0012995561258416922 0.0013239588293392781 0.00063978040039019057 0.00020346232348393838 0.00042900573034099438 -0.0029969336922376602 0 1.0292287363872383e-05 -0.0016903069910261599 -0.0026352127623260357 0.00021821439091666093 0.00094446338312551253 -0.00059436367735914207 -0.0037921584814940971 0.00012910195934988126 -0.0009990690340416573 -0.0012520151813820101 0.00019509005396088484 -0.0020185015833261879 0.0015642852279659216 2.7862129365949887e-05 0.0013910888760072513 -0.0036589940652646232 -0.00061040691414962164 0.00018492024761774907 0.0015715409276969754 0.0021290765549520237 -0.00020158467774009287 0.0012205389060192938 0.0013090699181728665 -0.0031401574324181609 0.00075445553023166544 3.8974193670738351e-05 -0.0031278760891132219 -0.0013448550868055667 0.0025717639592718949 -0.0027802617808164697 -0.0019015349585621366
leaf_weight=140 56 21 2006 35 20 93 21 23 98 95 22318 93 292 26 20 27 35 25 20 30 23 34 56 95 701 523 251 34 552 102 28 20 29 140 47 69 28 20 20 24 107 70 131 46 28 32 22 48 26 25 180 28 23 23 21 31 61 21 31 34 21 71 27
leaf_count=140 56 21 2006 35 20 93 21 23 98 95 22318 93 292 26 20 27 35 25 20 30 23 34 56 95 701 523 251 34 552 102 28 20 29 140 47 69 28 20 20 24 107 70 131 46 28 32 22 48 26 25 180 28 23 23 21 31 61 21 31 34 21 71 27
internal_value=0 1.72597e-05 0.000275671 0.000343534 -2.59991e-05 0 -0.00157539 -0.000753476 7.75509e-06 1.99732e-05 6.66455e-06 -0.00124842 1.73271e-05 -0.00051467 0.000393353 -0.000603579 -0.00152641 -0.000979691 -0.00128024 -0.00252034 -0.000402001 -0.00226529 0.000430742 1.86429e-06 0.000237637 0.000559554 0.000404742 -0.00134208 -0.000283341 -0.000967702 -0.000272193 -0.00251741 0.000195858 -0.000968999 -0.00127867 -0.00104367 -0.00128343 -0.00147292 -0.0011335 -0.000915105 5.02587e-07 -0.00159387 0.00108603 -0.00158883 -0.000595095 -0.00125534 -9.26524e-05 -0.00283325 -0.0024229 -0.000926255 0.000926722 0.000210994 0.00134603 -0.000233969 -0.000769 -0.00172341 0 0.00166076 -0.00215681 -0.000279811 0.0011889 -0.00205842 -0.000849711
internal_weight=0 28944 4167 3996 24777 23522 114 94 23408 23127 22798 188 22610 1255 3880 1208 212 281 171 76 996 57 3797 886 757 2911 2257 129 939 185 130 55 71 280 116 453 384 356 288 268 659 188 654 156 74 83 47 68 82 46 329 126 203 95 72 51 112 47 51 69 50 141 51
internal_count=29397 28944 4167 3996 24777 23522 114 94 23408 23127 22798 188 22610 1255 3880 1208 212 281 171 76 996 57 3797 886 757 2911 2257 129 939 185 130 55 71 280 116 453 384 356 288 268 659 188 654 156 74 83 47 68 82 46 329 126 203 95 72 51 112 47 51 69 50 141 51
is_linear=0
shrinkage=0.05


Tree=19
num_leaves=38
num_cat=0
split_feature=0 0 0 0 0 0 0 0 0 0 0 0 0 0 0 0 0 0 0 0 0 0 0 0 0 0 0 0 0 0 0 0 22 22 0 15 0
split_gain=162.505 39.8905 7.28671 5.60986 1.25247 1.05971 0.731889 0.723201 0.201767 0.196997 0.14031 0.104679 0.10101 0.0907073 0.0881955 0.072385 0.0139276 0.0133493 0.0131322 0.0124442 0.0124258 0.00771873 0.00631269 0.00582278 0.00542198 0.0047652 0.00407111 0.00268668 0.00141082 0.00119551 0.00115554 0.000965748 0.000681737 0.000333408 0.00028751 0.000196243 0.000151652
threshold=1.0000000180025095e-35 0.44895470278133182 0.55548879234996118 0.37183591387525905 0.64261493251139157 0.50077519537204829 0.4084320141977083 0.33369770029407858 0.59710708474945295 0.70019623065170389 0.47587473517988482 0.35295428715589905 0.52649810472510927 0.42684470087534598 0.39191018069790534 0.31698956241622739 0.38193145277302826 0.57432069328086277 0.46324425207766068 0.34404406365677898 0.36244734366414749 0.43811586074648406 0.30663918621808722 0.3262736709906956 0.39938343873009419 0.41551649242751071 0.48891830776945994 0.73295651107464233 0.36584470645590367 0.5131340563182607 0.66807745007804054 0.375839130347905 402.79454334288306 258.11696914947032 0.35981584646866177 -2.0817257834522764 0.36845062501511955
decision_type=2 2 2 2 2 2 2 2 2 2 2 2 2 2 2 2 2 2 2 2 2 2 2 2 2 2 2 2 2 2 2 2 2 2 2 2 2
left_child=-1 3 5 7 8 10 14 15 17 30 18 19 29 25 16 22 31 -4 -3 -9 32 -15 -2 -17 -16 -8 -12 -11 33 -7 -6 -5 34 -22 -13 -21 -30
right_child=1 2 4 6 9 12 13 11 -10 27 26 20 -14 21 24 23 -18 -19 -20 35 28 -23 -24 -25 -26 -27 -28 -29 36 -31 -32 -33 -34 -35 -36 -37 -38
leaf_value=-0.0093730886479972235 -0.0017005311120141251 0.0022205566479616651 0.0049839219872086591 0.00012193534466158011 0.0072488451725997273 0.0035115812818798196 0.001091195257023294 -0.00076293679894587731 0.0063449170866462234 0.0088348413576612942 0.0028831850623931505 -0.00032526172325271323 0.0043615902149248169 0.0016165380617857883 0.00067057907594424441 -0.0012117069313759283 0.00045499869103744062 0.0055276873595534598 0.0025603013094723619 0 -0.00013471417296275352 0.0018964144511239593 -0.0014486161023811047 -0.00098349264432150401 0.00089082420715977818 0.0013302711245905497 0.0032072653671772612 0.010330096501987298 -2.8271231994007098e-05 0.0038546394595604695 0.0080880750661370526 0.00024436565467690391 0 0 -0.00019447599285868733 -0.00051675974617742995 1.8657144080371502e-05
leaf_weight=3995 802 1100 600 500 300 700 700 1300 800 100 900 782 1200 1000 800 1100 1100 600 900 20 359 900 1300 900 1000 1100 700 100 300 700 200 700 25 41 293 1080 400
leaf_count=3995 802 1100 600 500 300 700 700 1300 800 100 900 782 1200 1000 800 1100 1100 600 900 20 359 900 1300 900 1000 1100 700 100 300 700 200 700 25 41 293 1080 400
internal_value=0 0.00147512 0.00417312 1.96936e-05 0.00634302 0.00322726 0.000993716 -0.000852794 0.00569701 0.00818056 0.0026674 -0.000420756 0.0040004 0.00150429 0.000531706 -0.00133604 0.000322857 0.00526041 0.00237606 -0.000649852 -0.000168541 0.00175184 -0.00154719 -0.00111156 0.000795758 0.00124014 0.00302829 0.00961225 -4.42734e-05 0.00368694 0.00759609 0.000197534 -0.000288249 -0.000119184 -0.000294287 -0.000511605 0
internal_weight=0 25402 8900 16502 2700 6200 7800 8702 2000 700 3600 4600 2600 3700 4100 4102 2300 1200 2000 2400 2200 1900 2102 2000 1800 1800 1600 200 1100 1400 500 1200 1100 400 1075 1100 700
internal_count=29397 25402 8900 16502 2700 6200 7800 8702 2000 700 3600 4600 2600 3700 4100 4102 2300 1200 2000 2400 2200 1900 2102 2000 1800 1800 1600 200 1100 1400 500 1200 1100 400 1075 1100 700
is_linear=0
shrinkage=0.05


Tree=20
num_leaves=36
num_cat=0
split_feature=0 0 0 0 0 0 0 0 0 0 0 0 0 0 0 0 0 0 0 0 0 0 0 0 0 0 0 22 0 0 0 0 22 0 15
split_gain=146.665 36.0089 6.58075 5.06612 1.19248 0.893801 0.675443 0.638032 0.256806 0.128198 0.109974 0.0960531 0.0924605 0.0868708 0.0728903 0.0689586 0.0329442 0.0125181 0.00960948 0.00862993 0.00851761 0.0080657 0.00601414 0.00568336 0.00342596 0.00295733 0.0017037 0.000957775 0.000789585 0.000777672 0.00050461 0.000467294 0.000175689 4.57776e-05 1.08053e-05
threshold=1.0000000180025095e-35 0.44895470278133182 0.55254152272705725 0.37265001979571843 0.62858345603585553 0.49547861887364214 0.3377875400216685 0.41038575995176713 0.68291581541597646 0.58506864938767478 0.52079625088495041 0.31962325167350114 0.47000980583432245 0.39277618152884292 0.35558162304546936 0.43010716009355493 0.73295651107464233 0.38290998954105337 0.30825664131621161 0.36496849047911106 0.34629429031360542 0.32876203791313968 0.42061106603616316 0.40193291730837249 0.48126205688520324 0.53471393785757126 0.44150020866230716 399.08290869685317 0.4592780034574479 0.37751387273833142 0.36063166404196084 0.36845062501511955 131.6578757559395 0.36928410244679216 -1.9672029543854224
decision_type=2 2 2 2 2 2 2 2 2 2 2 2 2 2 2 2 2 2 2 2 2 2 2 2 2 2 2 2 2 2 2 2 2 2 2
left_child=-1 3 5 6 9 12 11 13 -6 -4 -7 18 28 17 20 22 -10 29 -2 27 -8 -13 -9 -15 -14 -12 -17 30 -3 -5 -16 32 -21 -33 -22
right_child=1 2 4 7 8 10 14 15 16 -11 25 21 24 23 19 26 -18 -19 -20 31 34 -23 -24 -25 -26 -27 -28 -29 -30 -31 -32 33 -34 -35 -36
leaf_value=-0.0089044459485097018 -0.0015900716892263392 0.00206411424570308 0.0048290573898619052 0.00014625287871156326 0.0068465847081888567 0.0033663123980687097 -0.00064738118608399656 0.0011243785385077071 0.0081836876967202304 0.0057196894146352203 0.0038437170068454166 -0.0010878215971914245 0.0025894828306955928 0.00068518986241308474 -0.00026741283749745574 0.0016123568100722332 0.009814107629445408 0.00045366723863970001 -0.0013328494194185412 -6.5963460585190747e-05 -2.1749644322138827e-05 -0.00085435553735604465 0.0013657048223967513 0.00090147247306200445 0.0028841949401282822 0.0042192052836427345 0.0018522790059387695 0 0.0023107972106882488 0.00026185597525206315 -0.00015371472439095588 0 0 3.5918693717076978e-05 -0.000432187157722231
leaf_weight=3995 1002 800 1000 600 600 1400 1100 1000 200 900 700 1100 800 1000 584 1000 100 1100 1400 277 26 1100 900 900 900 700 600 26 800 600 490 100 123 400 1074
leaf_count=3995 1002 800 1000 600 600 1400 1100 1000 200 900 700 1100 800 1000 584 1000 100 1100 1400 277 26 1100 900 900 900 700 600 26 800 600 490 100 123 400 1074
internal_value=0 0.0014015 0.00396487 1.86799e-05 0.00597351 0.00304197 -0.000800404 0.000955636 0.00748648 0.00525385 0.00370273 -0.00121925 0.00247971 0.000538239 -0.000340257 0.00145505 0.00874691 0.000327806 -0.00144229 -0.000118568 -0.000539505 -0.000973405 0.00124139 0.000790313 0.00274861 0.00403532 0.00170556 -0.000212536 0.00219072 0.000208238 -0.000220214 0 -4.37692e-05 2.83431e-05 -0.000427034
internal_weight=0 25402 8900 16502 2800 6100 8802 7700 900 1900 2800 4602 3300 4200 4200 3500 300 2300 2402 2000 2200 2200 1900 1900 1700 1400 1600 1100 1600 1200 1074 900 400 500 1100
internal_count=29397 25402 8900 16502 2800 6100 8802 7700 900 1900 2800 4602 3300 4200 4200 3500 300 2300 2402 2000 2200 2200 1900 1900 1700 1400 1600 1100 1600 1200 1074 900 400 500 1100
is_linear=0
shrinkage=0.05


Tree=21
num_leaves=37
num_cat=0
split_feature=0 0 0 0 0 0 0 0 0 0 0 0 0 0 0 0 0 0 0 0 0 0 0 0 0 0 0 0 22 22 0 0 0 0 5 21
split_gain=132.369 32.5054 5.46936 5.09077 0.872675 0.868249 0.699749 0.63167 0.178547 0.104268 0.0916929 0.0915893 0.0878875 0.0864525 0.0808437 0.0711361 0.0112912 0.00883998 0.00839885 0.00790188 0.00745227 0.00709442 0.00644541 0.00513321 0.00489849 0.00383122 0.00227081 0.00203839 0.000869242 0.000542262 0.000492777 0.000449708 0.000385708 0.000315122 0.000169448 7.36901e-05
threshold=1.0000000180025095e-35 0.45541762242256917 0.56490017802087233 0.37329619045455859 0.65756218888173146 0.50394549960490764 0.41351560837924839 0.3377875400216685 0.60672020009940908 0.53071184344911237 0.3936631802200084 0.47703368450964495 0.73295651107464233 0.31962325167350114 0.43357262852693218 0.35647180900295289 0.38290998954105337 0.34629429031360542 0.30825664131621161 0.36584470645590367 0.40193291730837249 0.32876203791313968 0.44273825053547133 0.48891830776945994 0.42365521468123413 0.54469190891522457 0.58090530631612269 0.46450348267670533 399.08290869685317 399.08290869685317 0.3615480292140254 0.36928410244679216 0.38730977749753953 0.37751387273833142 0.039962435774300295 0.10734403833394952
decision_type=2 2 2 2 2 2 2 2 2 2 2 2 2 2 2 2 2 2 2 2 2 2 2 2 2 2 2 2 2 2 2 2 2 2 2 2
left_child=-1 3 5 7 8 11 10 13 26 -7 16 27 -6 18 24 17 33 -9 -2 28 -12 -15 -16 -13 -8 -11 -4 -3 30 -19 -17 34 -18 -5 -21 -33
right_child=1 2 4 6 12 9 14 15 -10 25 20 23 -14 21 22 19 32 29 -20 31 -22 -23 -24 -25 -26 -27 -28 -29 -30 -31 -32 35 -34 -35 -36 -37
leaf_value=-0.0084592348171791502 -0.0015105760397444178 0.002077614151153151 0.0046997794730618964 0.00014675137957473731 0.0073770167532785924 0.003413428574386482 0.001140374833824661 -0.00061501506914112664 0.005997864055832451 0.003859676666020195 0.00066150591698165917 0.0026177822137892865 0.0093238924736981383 -0.0010334354607238871 0.0015804447850833803 -0.00023428585774986686 0.0003579913507385949 -0.00040384449001267496 -0.0012662117102518456 -5.0854298863838054e-05 0.00088900820410417513 -0.00081164164307541897 0.0018560559481289993 0.0029306334833571175 0.0013696640999129965 0.0042609070473876177 0.005159544665040503 0.0023437009247945103 0 0 -0.00012640440971428576 0 0.00049374884920823272 0.00024876535739533758 0 5.4264105248643271e-05
leaf_weight=3995 1002 700 500 500 400 1400 1000 1100 800 600 900 800 100 1100 800 588 500 1171 1400 219 1200 1100 1000 900 900 700 600 900 22 29 490 58 700 600 181 442
leaf_count=3995 1002 700 500 500 400 1400 1000 1100 800 600 900 800 100 1100 800 588 500 1171 1400 219 1200 1100 1000 900 900 700 600 900 22 29 490 58 700 600 181 442
internal_value=0 0.00133155 0.00387617 7.40454e-05 0.00589574 0.00306742 0.000981319 -0.00075093 0.00539734 0.0037363 0.000553328 0.00251855 0.00777818 -0.00115846 0.0014889 -0.0003136 0.000331455 -0.000503734 -0.00137029 -9.24319e-05 0.000793924 -0.000924853 0.00173643 0.00278651 0.00125168 0.00407988 0.00495555 0.00223055 -0.000182665 -0.000397517 -0.000189903 1.23063e-05 0.000441384 0.000206958 -1.89058e-05 4.72727e-05
internal_weight=0 25402 8400 17002 2400 6000 8100 8902 1900 2700 4400 3300 500 4602 3700 4300 2300 2300 2402 2000 2100 2200 1800 1700 1900 1300 1100 1600 1100 1200 1078 900 1200 1100 400 500
internal_count=29397 25402 8400 17002 2400 6000 8100 8902 1900 2700 4400 3300 500 4602 3700 4300 2300 2300 2402 2000 2100 2200 1800 1700 1900 1300 1100 1600 1100 1200 1078 900 1200 1100 400 500
is_linear=0
shrinkage=0.05


Tree=22
num_leaves=35
num_cat=0
split_feature=0 0 0 0 0 0 0 0 0 0 0 0 0 0 0 0 0 0 0 0 0 0 0 0 0 0 0 0 22 0 22 0 5 0
split_gain=119.467 29.345 5.36722 4.1308 0.886803 0.837381 0.558281 0.514819 0.142097 0.10959 0.101534 0.100087 0.0768195 0.0767631 0.0600513 0.0496921 0.00987481 0.00740303 0.00737667 0.00695313 0.00613445 0.00583329 0.00540055 0.00491932 0.00486488 0.00322331 0.00194287 0.00108096 0.000593021 0.00047928 0.000345919 0.000239047 0.000160533 8.61597e-05
threshold=1.0000000180025095e-35 0.44895470278133182 0.56141094978572592 0.37101886299967074 0.50077519537204829 0.64900557463375663 0.40655131890071644 0.33301177671781063 0.60200357798299031 0.70019623065170389 0.47426403994497796 0.53071184344911237 0.3512762615907854 0.42684470087534598 0.38730977749753953 0.31302227265851662 0.3615480292140254 0.32297140954013243 0.34007613946625875 0.39636924868313311 0.51499453498691972 0.46189460972838597 0.41551649242751071 0.4370634933911231 0.38015785932464635 0.48891830776945994 0.57759323586943756 0.36584470645590367 402.79454334288306 0.37329619045455859 258.11696914947032 0.30403437340328776 0.039962435774300295 0.35719042004440221
decision_type=2 2 2 2 2 2 2 2 2 2 2 2 2 2 2 2 2 2 2 2 2 2 2 2 2 2 2 2 2 2 2 2 2 2
